svm_type c_svc
kernel_type linear
nr_class 2
total_sv 173
rho -7.18901
label 1 2
nr_sv 84 89
SV
1 6:324 7:78 10:527 11:132 14:207 21:0.42815 
1 6:204 10:470 21:0.434595 
1 6:120 7:12 8:14 9:4 10:341 12:6 13:2 14:42 15:12 16:2 17:87 19:22 21:0.488658 
1 6:544 7:56 8:8 10:762 11:4 12:2 14:47 17:21 21:0.486884 
0.7991359546239823 6:416 7:114 9:10 10:562 11:56 13:8 14:171 19:17 21:0.413517 
1 6:268 7:166 10:407 11:552 13:18 14:568 19:17 21:0.433124 
1 6:1452 7:146 10:1463 11:116 14:233 21:0.474942 
1 6:828 10:938 21:0.250962 
0.6256979357864095 6:1600 7:96 10:1336 11:20 14:72 21:0.32274 
1 6:2312 7:12 10:1672 14:20 21:0.470988 
1 6:728 7:148 10:914 11:52 14:212 21:0.238339 
0.8478968589179299 6:1108 7:28 10:836 14:12 21:0.241112 
0.8758637959067841 6:32 7:142 9:16 10:139 11:1620 13:148 14:1437 18:32 19:162 21:0.371036 
0.07107206086840652 0:4 1:8 2:2 5:71 6:1668 7:2 8:8 10:1861 14:24 17:22 21:0.047218 
1 6:1480 7:18 10:1253 14:17 21:0.336547 
1 6:340 7:430 8:10 9:38 10:631 11:1496 12:110 13:102 14:1427 15:8 16:14 17:137 18:52 19:209 21:0.354122 
1 6:1760 7:678 8:24 9:22 10:1852 11:344 12:4 13:6 14:732 16:2 17:37 19:37 21:0.485091 
1 6:4780 7:338 8:2 9:48 10:3162 11:488 12:22 13:76 14:786 16:12 17:60 18:16 19:210 21:0.476137 
0.1639259892085725 6:1164 7:332 8:24 9:26 10:1047 11:568 12:40 13:46 14:651 15:4 16:16 17:62 18:16 19:104 21:0.234117 
1 6:1248 7:248 10:1098 11:148 14:322 21:0.370168 
0.3337357387461521 6:180 7:272 8:2 9:10 10:366 11:992 12:10 13:64 14:917 16:2 17:19 19:66 21:0.410236 
1 6:1740 7:252 9:4 10:1524 11:340 13:34 14:363 19:33 21:0.363217 
1 6:976 7:494 8:24 9:56 10:1279 11:432 12:12 13:40 14:759 15:8 16:14 17:75 18:16 19:93 21:0.428 
1 6:1764 7:528 8:24 9:70 10:1745 11:392 12:52 13:80 14:748 15:4 16:20 17:54 18:36 19:157 21:0.389714 
0.1993586243099014 1:12 2:4 5:18 6:1556 7:298 9:8 10:1221 11:160 13:30 14:300 18:8 19:55 21:0.359255 
0.6086739133211152 6:1092 7:180 8:56 9:22 10:1197 11:108 12:32 13:8 14:304 15:12 16:6 17:103 19:60 21:0.346345 
1 6:1820 7:244 10:1386 11:236 14:332 21:0.456587 
1 6:2020 7:434 9:44 10:1819 11:204 12:12 13:54 14:506 15:4 16:8 17:40 18:16 19:121 21:0.412796 
1 6:2460 7:186 10:1771 11:44 14:119 21:0.391278 
1 6:1228 7:216 8:6 9:50 10:1174 11:96 12:6 13:34 14:344 17:20 18:12 19:82 21:0.378451 
0.2578744515126509 6:548 7:550 10:725 11:1196 13:18 14:1146 19:17 21:0.447548 
1 6:380 7:334 10:683 11:508 14:619 21:0.395395 
1 6:536 10:850 21:0.407723 
1 6:1748 10:1700 21:0.425142 
1 6:1340 7:60 8:22 10:1447 11:28 12:4 14:136 15:4 17:37 21:0.442904 
1 6:676 7:10 9:14 10:846 14:21 19:19 21:0.468724 
1 6:988 7:64 8:18 10:1181 14:46 17:17 21:0.484995 
1 6:56 7:6 9:2 10:254 11:4 13:2 14:46 19:24 21:0.381281 
1 6:1944 10:1576 21:0.404536 
1 6:364 7:20 8:6 9:14 10:604 14:42 16:2 17:22 19:18 21:0.38379 
1 6:68 7:32 9:4 10:208 11:48 12:4 14:166 16:2 17:23 19:23 21:0.37482 
1 6:228 7:26 10:419 11:24 14:79 21:0.415792 
1 6:460 7:8 10:598 14:22 21:0.472446 
1 6:296 10:580 21:0.487022 
1 6:596 7:16 10:838 14:18 21:0.475276 
1 6:64 7:20 10:192 11:72 13:8 14:184 19:22 21:0.370339 
1 6:580 7:54 10:853 14:51 21:0.482288 
0.970181932737776 6:204 7:4 10:416 14:24 21:0.400885 
1 6:1408 10:1090 21:0.415827 
1 6:60 7:96 10:208 11:196 13:24 14:466 18:4 19:38 21:0.480996 
1 6:228 7:138 10:441 11:96 14:299 21:0.401261 
1 6:8 7:24 10:114 11:432 14:578 21:0.458971 
1 6:1204 10:1140 21:0.426081 
1 6:384 10:536 21:0.42976 
1 6:372 7:104 9:28 10:606 11:56 13:8 14:150 18:4 19:58 21:0.437249 
1 6:244 10:502 21:0.455324 
1 6:232 10:456 21:0.397859 
0.5026232510401699 6:600 10:714 21:0.461472 
1 6:196 7:18 9:10 10:486 11:12 13:6 14:60 19:18 21:0.460777 
1 6:196 10:448 21:0.384836 
1 6:272 10:462 21:0.391223 
1 6:92 7:116 8:16 9:4 10:250 11:156 12:22 13:6 14:344 15:4 16:4 17:55 19:19 21:0.434156 
1 6:388 7:82 8:16 10:667 11:68 14:185 17:18 21:0.385367 
1 6:880 7:18 10:1111 11:4 14:67 21:0.486101 
1 6:68 7:86 9:6 10:232 11:360 13:26 14:414 18:4 19:34 21:0.474785 
1 6:84 7:42 10:275 11:28 12:4 13:4 14:143 16:2 17:23 19:23 21:0.428118 
1 6:844 7:6 10:927 14:23 21:0.485374 
1 6:140 7:94 9:18 10:446 11:56 13:18 14:228 18:12 19:54 21:0.418605 
1 6:560 7:18 10:725 11:12 13:6 14:60 19:23 21:0.453354 
1 6:676 7:24 9:2 10:923 11:4 13:4 14:62 19:23 21:0.482536 
0.00296881468342366 6:532 7:106 10:669 11:20 14:145 21:0.41466 
1 6:900 7:62 10:1365 11:4 14:71 21:0.470217 
1 6:452 10:658 21:0.44475 
0.7781076001002171 6:524 10:648 21:0.385275 
1 6:2072 7:46 10:1749 14:29 21:0.47991 
1 6:564 7:148 10:762 11:64 14:206 21:0.482398 
1 6:1536 7:112 9:14 10:1639 11:28 14:138 19:19 21:0.440764 
1 6:380 10:720 21:0.483622 
0.7850938580821977 6:88 7:56 10:240 11:148 14:262 21:0.393237 
1 6:324 7:78 10:527 11:132 14:207 21:0.42815 
1 6:204 10:470 21:0.434595 
1 6:120 7:12 8:14 9:4 10:341 12:6 13:2 14:42 15:12 16:2 17:87 19:22 21:0.488658 
1 6:544 7:56 8:8 10:762 11:4 12:2 14:47 17:21 21:0.486884 
1 6:416 7:114 9:10 10:562 11:56 13:8 14:171 19:17 21:0.413517 
-0.235432519720237 6:928 7:38 8:58 9:46 10:1181 11:8 12:8 13:6 14:74 15:16 16:10 17:110 18:16 19:117 21:0.509199 
-1 6:1056 7:120 10:1128 11:44 14:152 21:0.582076 
-1 6:356 7:30 9:14 10:606 11:4 13:4 14:85 19:43 21:0.526968 
-0.9562403382335132 6:1888 10:1500 21:0.702024 
-0.151831954763195 6:100 7:30 8:2 10:376 11:24 12:6 14:152 17:22 21:0.522374 
-1 6:328 9:8 10:508 19:22 21:0.5041 
-1 6:344 8:10 9:12 10:571 16:2 17:20 19:19 21:0.50565 
-1 6:340 10:584 21:0.537877 
-1 6:796 7:454 8:4 9:12 10:719 11:624 12:10 13:80 14:872 16:4 17:17 18:12 19:128 21:0.573059 
-0.9641108346602396 6:5352 7:920 8:60 9:178 10:3505 11:836 12:68 13:116 14:1292 15:20 16:12 17:154 18:40 19:269 21:0.632457 
-0.2163222854315542 6:2396 7:336 10:1988 11:116 14:294 21:0.594308 
-1 6:652 7:186 8:12 10:823 11:136 12:12 13:8 14:271 15:4 16:4 17:36 19:20 21:0.52503 
-1 6:488 9:16 10:658 19:18 21:0.518931 
-1 6:296 7:20 10:674 14:68 21:0.515956 
-1 6:188 10:478 21:0.494631 
-1 6:48 7:36 9:6 10:163 11:148 12:10 13:34 14:354 17:21 18:4 19:56 21:0.537059 
-1 6:208 7:88 9:32 10:434 11:144 13:20 14:238 18:12 19:72 21:0.539422 
-1 6:552 7:146 10:717 11:48 14:163 21:0.516151 
-0.99554075287724 6:184 7:16 10:420 11:8 14:66 21:0.538875 
-1 6:492 10:742 21:0.512013 
-1 6:1824 7:132 10:1570 11:12 14:110 21:0.827267 
-1 6:1092 7:20 10:1134 14:16 21:0.523638 
-1 6:352 7:32 8:16 9:22 10:569 11:4 12:2 13:8 14:55 17:17 18:12 19:57 21:0.579327 
-0.304355869682414 6:1512 7:206 8:48 9:32 10:1571 11:88 12:10 14:238 16:2 17:74 18:4 19:33 21:0.624907 
-1 6:152 7:80 9:4 10:324 11:216 13:10 14:341 19:19 21:0.493371 
-1 6:1620 7:144 10:1432 11:44 14:140 21:0.702701 
-1 6:916 7:68 10:1068 11:56 14:94 21:0.54305 
-0.2075096378405533 1:6 5:23 6:1716 7:126 8:16 9:10 10:1611 11:32 12:10 13:14 14:169 17:39 18:4 19:38 21:0.598141 
-1 6:28 7:32 8:2 10:177 11:104 12:8 13:4 14:238 15:16 16:6 17:88 19:21 21:0.514064 
-0.2203058015668369 6:812 7:50 10:1077 11:12 14:99 21:0.549849 
-1 6:156 7:116 8:6 9:26 10:498 11:416 12:10 13:54 14:560 16:4 17:42 18:8 19:110 21:0.495182 
-1 6:1504 7:582 8:22 9:28 10:1636 11:388 12:28 13:52 14:723 15:4 16:18 17:68 18:24 19:121 21:0.825362 
-0.04283547153324156 6:460 7:78 9:16 10:711 11:28 13:12 14:149 18:4 19:36 21:0.556217 
-1 6:472 10:700 21:0.533993 
-1 6:960 10:1028 21:0.573253 
-1 6:484 10:642 21:0.530979 
-1 6:464 7:194 8:4 10:683 11:232 12:6 14:330 17:21 21:0.499108 
-1 6:592 7:38 10:829 11:24 14:73 21:0.531604 
-1 6:344 7:28 10:542 11:8 14:60 21:0.503581 
-1 6:400 10:632 21:0.504718 
-1 6:1476 7:32 8:12 10:1242 11:4 14:34 17:20 21:0.554665 
-1 6:476 7:78 10:685 11:16 14:83 21:0.559444 
-0.4581207556806552 6:32 7:86 8:2 9:10 10:169 11:664 12:38 13:86 14:733 16:18 17:49 18:96 19:181 21:0.561591 
-1 6:1016 10:974 21:0.524495 
-1 6:1456 7:218 9:6 10:1370 11:292 12:18 13:24 14:400 15:4 16:2 17:40 19:36 21:0.66602 
-1 6:192 7:106 10:475 11:296 13:16 14:415 19:18 21:0.512074 
-1 6:1032 10:1018 21:0.532561 
-0.3200511260453726 6:896 10:1034 21:0.566552 
-1 6:1144 7:136 9:6 10:1021 11:60 12:2 13:4 14:133 16:2 17:24 19:20 21:0.552488 
-0.2659459647157542 6:740 7:118 10:793 11:268 14:275 21:0.579927 
-0.2585667352284465 6:108 7:82 8:6 9:4 10:212 11:800 12:32 13:168 14:811 15:12 16:44 17:83 18:104 19:256 21:0.656729 
-1 6:224 7:170 9:6 10:528 11:256 13:14 14:352 19:16 21:0.539551 
-0.5116288127320913 6:832 7:168 10:1138 11:352 14:416 21:0.554226 
-1 6:884 10:910 21:0.520263 
-1 6:1188 7:106 10:1147 11:64 14:175 21:0.568477 
-1 6:648 10:768 21:0.531112 
-1 6:204 7:294 10:427 11:1120 13:20 14:999 19:16 21:0.494513 
-1 6:516 7:34 10:765 11:8 14:83 21:0.543258 
-1 6:380 7:80 10:602 11:84 14:152 21:0.520084 
-1 6:1324 7:186 9:2 10:1298 11:116 13:6 14:288 19:22 21:0.648393 
-1 6:1616 7:330 8:10 9:12 10:1460 11:552 12:8 13:4 14:593 17:17 19:18 21:0.807491 
-1 6:560 7:188 10:692 11:120 14:262 21:0.598595 
-0.9928423540218704 6:336 7:48 10:510 11:108 14:182 21:0.557392 
-1 6:1748 7:92 9:12 10:1414 11:12 13:4 14:76 19:18 21:0.624157 
-1 6:1180 7:16 10:1144 14:44 21:0.529985 
-1 6:144 7:106 9:6 10:418 11:64 13:4 14:251 19:21 21:0.505027 
-0.2103758586951982 6:1616 7:160 8:4 9:18 10:1493 11:64 12:14 13:24 14:233 15:4 16:12 17:35 18:12 19:45 21:0.836476 
-1 6:120 7:56 9:8 10:350 11:224 13:42 14:359 18:4 19:77 21:0.499319 
-0.509670224959478 6:24 7:44 8:2 9:4 10:119 11:524 12:26 13:54 14:638 16:2 17:37 19:48 21:0.597148 
-1 6:432 10:616 21:0.510197 
-1 6:368 7:92 10:602 11:68 14:154 21:0.515119 
-1 6:1072 7:40 8:4 10:1132 11:96 12:8 14:162 17:20 21:0.549024 
-0.6614891025341944 6:1776 7:32 10:1670 14:36 21:0.801957 
-1 6:116 7:6 8:4 10:379 12:2 14:48 17:23 21:0.537878 
-1 6:920 7:52 10:1048 11:4 14:50 21:0.534363 
-1 6:416 10:650 21:0.541372 
-1 6:2008 7:122 8:14 9:42 10:1663 11:32 12:2 13:4 14:128 16:4 17:16 18:4 19:51 21:0.8448 
-1 6:1304 10:1142 21:0.538475 
-0.2706390716782429 6:140 7:132 8:4 9:8 10:404 11:548 12:30 13:8 14:681 15:4 17:85 19:18 21:0.496115 
-1 6:164 7:150 10:337 11:380 14:515 21:0.519408 
-0.1944545781973359 1:10 2:2 5:20 6:1212 7:460 8:16 9:16 10:1301 11:1028 12:42 13:74 14:1069 16:8 17:71 18:12 19:101 21:0.649067 
-1 6:156 7:8 10:412 11:148 13:32 14:192 18:4 19:34 21:0.516806 
-1 6:380 10:642 21:0.496014 
-1 6:252 7:148 8:12 10:444 11:160 12:20 14:356 15:4 17:34 21:0.529143 
-1 6:136 7:166 10:343 11:440 13:40 14:561 19:58 21:0.538532 
-1 6:392 10:610 21:0.522788 
-1 6:1808 7:230 8:14 9:12 10:1516 11:160 12:18 13:10 14:337 15:4 16:4 17:58 19:39 21:0.543182 
-0.8739407290480355 6:2132 7:228 8:8 9:8 10:1854 11:76 12:2 13:2 14:236 16:2 17:20 19:20 21:0.704435 
-1 6:712 7:124 10:960 11:76 14:134 21:0.510903 
