svm_type c_svc
kernel_type linear
nr_class 2
total_sv 190
rho -4.53375
label 1 2
nr_sv 95 95
SV
1 0:0.000981114 1:0.00556483 2:0.00673836 3:0.00741718 4:0.00689004 5:0.00678686 6:0.00655157 7:0.00599281 8:0.00589044 9:0.00541314 10:0.00521135 11:0.0047421 12:0.00455933 13:0.00452931 14:0.00421442 15:0.00403701 16:0.00385665 17:0.00374303 18:0.00332094 19:0.00311298 20:0.00295781 21:0.00302106 22:0.00290502 23:0.00261773 24:0.00272868 25:0.00260862 26:0.00243094 27:0.00237654 28:0.00235135 29:0.00219056 30:0.002361 31:0.00199465 32:0.00198849 33:0.0021249 34:0.00192096 35:0.00196116 36:0.00189014 37:0.00190863 38:0.00169692 39:0.00179045 40:0.00190809 41:0.0016318 42:0.0016267 43:0.00157123 44:0.00146778 45:0.00156158 46:0.00140615 47:0.001538 48:0.00170656 49:0.00128341 50:0.00137935 51:0.00131959 52:0.00145787 53:0.00137962 54:0.00138069 55:0.00131878 56:0.00113521 57:0.00144903 58:0.00130645 59:0.00117407 60:0.00126947 61:0.00129439 62:0.00131235 63:0.000574572 64:1.20596e-05 65:8.6561e-05 66:0.000180358 67:0.00017339 68:0.000237976 69:0.000250839 70:0.000233152 71:0.000254323 72:0.000256735 73:0.000251643 74:0.000261827 75:0.000295594 76:0.000265311 77:0.000231544 78:0.000274154 79:0.000251643 80:0.000250571 81:0.000259147 82:0.000272547 83:0.000265043 84:0.000235564 85:0.000256199 86:0.000248695 87:0.000256735 88:0.000254323 89:0.000280586 90:0.000242264 91:0.000232884 92:0.000238512 93:0.00027469 94:0.000241728 95:0.00023744 96:0.000251643 97:0.000220556 98:0.000227524 99:0.000203137 100:0.000206889 101:0.000252447 102:0.000187057 103:0.000251107 104:0.000200993 105:0.000254859 106:0.00023342 107:0.000214661 108:0.000242264 109:0.000226184 110:0.000201797 111:0.000210373 112:0.000261291 113:0.000247355 114:0.000221896 115:0.000192417 116:0.000192685 117:0.000246551 118:0.000221092 119:0.000206353 120:0.00024012 121:0.000193221 122:0.000187861 123:0.000233956 124:0.000218412 125:0.000208229 126:0.000279246 127:0.000127296 128:5.8154e-05 129:0.000232348 130:0.000271475 131:0.000281658 132:0.000300418 133:0.000287822 134:0.000396626 135:0.000338204 136:0.000306849 137:0.000296666 138:0.000398234 139:0.000389122 140:0.000430661 141:0.000346244 142:0.000339276 143:0.000335792 144:0.000378403 145:0.000363127 146:0.000291574 147:0.000326413 148:0.000340616 149:0.000314085 150:0.000369827 151:0.000336864 152:0.000375455 153:0.000265311 154:0.000267187 155:0.000210105 156:0.000330433 157:0.000204745 158:0.000337936 159:0.000295862 160:0.000313013 161:0.000262631 162:0.000310065 163:0.000255395 164:0.000240924 165:0.000277102 166:0.000231812 167:0.000215465 168:0.000267455 169:0.000214393 170:0.000258611 171:0.000203673 172:0.000250571 173:0.000287554 174:0.000265311 175:0.000191613 176:0.000215733 177:0.000213857 178:0.000207425 179:0.000200457 180:0.000249231 181:0.000281926 182:0.000189737 183:0.000225648 184:0.000180626 185:0.000212785 186:0.000246819 187:0.000265579 188:0.000230204 189:0.00018277 190:0.000210909 191:7.12855e-05 193:1.71514e-05 194:0.000102908 195:0.000274422 196:0.000437361 197:0.00102908 198:0.00138926 199:0.0018695 200:0.00245265 201:0.00273565 202:0.00321589 203:0.00332737 204:0.00373043 205:0.0039534 206:0.0042707 207:0.00495676 208:0.00471664 209:0.00456227 210:0.00501679 211:0.00505109 212:0.00475094 213:0.00538554 214:0.00495676 215:0.00489673 216:0.00486242 217:0.00496533 218:0.00451082 219:0.00445079 220:0.0042364 221:0.00346458 222:0.00349031 223:0.00317301 224:0.0027528 225:0.00252983 226:0.00240977 227:0.00207532 228:0.00203244 229:0.00168084 230:0.00152647 231:0.00144072 232:0.00102051 233:0.00105481 234:0.000883297 235:0.000703208 236:0.000608875 237:0.000583148 238:0.000488815 239:0.000343028 240:0.000171514 241:0.000231544 242:0.000231544 243:0.000145787 244:0.000128636 245:5.14542e-05 246:9.43327e-05 247:4.28785e-05 248:3.43028e-05 249:1.71514e-05 250:3.43028e-05 251:8.5757e-06 253:8.5757e-06 255:8.5757e-06 257:6.00299e-05 258:0.000248695 259:0.000557421 260:0.000943327 261:0.00138069 262:0.00171514 263:0.00177517 264:0.00198099 265:0.00236689 266:0.00198956 267:0.00214393 268:0.00197241 269:0.0021525 270:0.00200671 271:0.00162081 272:0.0015865 273:0.00153505 274:0.0012349 275:0.00111484 276:0.000986206 277:0.000617451 278:0.000428785 279:0.000291574 280:0.000222968 281:0.000128636 282:5.14542e-05 284:8.5757e-06 323:5.14542e-05 324:1.71514e-05 325:1.71514e-05 326:0.000102908 327:0.000171514 328:0.000102908 329:0.000154363 330:0.000205817 331:0.00024012 332:0.000257271 333:0.000222968 334:0.00024012 335:0.000325877 336:0.000274422 337:0.00024012 338:0.000343028 339:0.000274422 340:0.000411634 341:0.000514542 342:0.000600299 343:0.000428785 344:0.000651753 345:0.000600299 346:0.000686056 347:0.000514542 348:0.000651753 349:0.000600299 350:0.00073751 351:0.000703208 352:0.000754662 353:0.000634602 354:0.000788965 355:0.000823267 356:0.000909024 357:0.000600299 358:0.000634602 359:0.000600299 360:0.000720359 361:0.000600299 362:0.000583148 363:0.000411634 364:0.000617451 365:0.000514542 366:0.000377331 367:0.000274422 368:0.000325877 369:0.000445936 370:0.000154363 371:0.000102908 372:0.00012006 373:0.000102908 374:6.86056e-05 375:3.43028e-05 376:3.43028e-05 379:1.71514e-05 384:6.00299e-05 385:0.00630314 386:0.0111913 387:0.0156078 388:0.0174001 389:0.0202901 390:0.021465 391:0.023506 392:0.0219538 393:0.0216708 394:0.0201701 395:0.019827 396:0.0179146 397:0.0167226 398:0.0153677 399:0.0141328 400:0.0147931 401:0.0139527 402:0.0136096 403:0.0128464 404:0.012006 405:0.0111398 406:0.0107539 407:0.00964766 408:0.00930464 409:0.00934752 410:0.00953618 411:0.009742 412:0.00883297 413:0.00818122 414:0.008893 415:0.00747801 416:0.00684341 417:0.00693774 418:0.00633744 419:0.0060716 420:0.00521403 421:0.00502536 422:0.00404773 423:0.00369613 424:0.00270135 425:0.00240977 426:0.00201529 427:0.00207532 428:0.00161223 429:0.00154363 430:0.00115772 431:0.00097763 432:0.000848994 433:0.000591723 434:0.000411634 435:0.000377331 436:0.000343028 437:0.000162938 438:0.000111484 439:9.43327e-05 440:6.00299e-05 441:9.43327e-05 442:0.000137211 443:1.71514e-05 444:2.57271e-05 445:6.86056e-05 446:1.71514e-05 447:1.71514e-05 456:0.000102908 457:0.000102908 458:0.000343028 459:0.00024012 460:0.000548845 461:0.00085757 462:0.000548845 463:0.000377331 464:0.000411634 465:0.000205817 466:0.000102908 470:6.86056e-05 473:0.000102908 524:3.43028e-05 525:0.000171514 526:0.000617451 527:0.000891873 528:0.000754662 529:0.00174944 530:0.00154363 531:0.00198956 532:0.00319016 533:0.00257271 534:0.0024355 535:0.00284713 536:0.00319016 537:0.00270992 538:0.00346458 539:0.00288144 540:0.00274422 541:0.0036704 542:0.00473379 543:0.00439076 544:0.00312156 545:0.00332737 546:0.00257271 547:0.00270992 548:0.00288144 549:0.00260701 550:0.0024012 551:0.00161223 552:0.00137211 553:0.000891873 554:0.000411634 555:0.000205817 556:0.000102908 557:3.43028e-05 559:3.43028e-05 560:0.000137211 561:6.86056e-05 562:3.43028e-05 565:6.86056e-05 566:3.43028e-05 568:3.43028e-05 569:6.86056e-05 570:3.43028e-05 574:3.43028e-05 606:6.86056e-05 608:3.43028e-05 610:0.000137211 611:0.000411634 612:3.43028e-05 613:0.000291574 614:0.00012006 615:0.000514542 616:0.000480239 617:0.000600299 618:0.000823267 619:0.000531694 620:0.00085757 621:0.00157793 622:0.00174944 623:0.00205817 624:0.00188665 625:0.00156078 626:0.00337883 627:0.00185235 628:0.00236689 629:0.00379046 630:0.00270992 631:0.00274422 632:0.00162938 633:0.00113199 634:0.00125205 635:0.000823267 636:0.000274422 640:0.42815 
1 0:0.000610218 1:0.00472503 2:0.0076368 3:0.00841613 4:0.00815099 5:0.00694998 6:0.00635234 7:0.00540519 8:0.00472503 9:0.00430687 10:0.00361172 11:0.00360451 12:0.00325592 13:0.00284719 14:0.0027717 15:0.00252987 16:0.00240368 17:0.00224345 18:0.00210301 19:0.00192613 20:0.00190781 21:0.00158346 22:0.00159845 23:0.00155867 24:0.0015372 25:0.00130592 26:0.00135477 27:0.0012641 28:0.00111386 29:0.00108056 30:0.00104522 31:0.000762496 32:0.000961214 33:0.00086315 34:0.000743993 35:0.000811713 36:0.000736222 37:0.000708283 38:0.000695146 39:0.000657585 40:0.000674238 41:0.000682194 42:0.000559521 43:0.000621505 44:0.000513449 45:0.00048366 46:0.000489581 47:0.000452021 48:0.000423341 49:0.000543054 50:0.000478849 51:0.000493652 52:0.000505123 53:0.000565072 54:0.000460162 55:0.000528067 56:0.000601152 57:0.000488101 58:0.000482735 59:0.000432593 60:0.000484585 61:0.000495317 62:0.000697921 63:0.000356917 64:1.07316e-05 65:9.26984e-05 66:0.000124338 67:0.000122488 68:0.000148206 69:0.000155978 70:0.000129704 71:0.000122673 72:0.000148392 73:0.000122673 74:0.00013729 75:0.000121563 76:0.000130259 77:0.000118787 78:0.000138215 79:0.000113421 80:0.000114532 81:9.38086e-05 82:0.000136735 83:0.000114347 84:0.000120452 85:0.000108796 86:0.000112496 87:0.00010158 88:0.000114162 89:9.60289e-05 90:0.000114717 91:8.9368e-05 92:9.32535e-05 93:7.90065e-05 94:8.52974e-05 95:6.71647e-05 96:8.43722e-05 97:9.73241e-05 98:7.88214e-05 99:7.86364e-05 100:7.45658e-05 101:6.84599e-05 102:6.25391e-05 103:8.23369e-05 104:9.15883e-05 105:7.36407e-05 106:8.12268e-05 107:7.78963e-05 108:7.84514e-05 109:6.14289e-05 110:6.42043e-05 111:7.95615e-05 112:6.82749e-05 113:5.56931e-05 114:5.77284e-05 115:6.9015e-05 116:6.99401e-05 117:7.51209e-05 118:7.78963e-05 119:8.12268e-05 120:7.93765e-05 121:6.60546e-05 122:8.3077e-05 123:5.21776e-05 124:7.14203e-05 125:8.06717e-05 126:5.01423e-05 127:3.03444e-05 128:0.000462197 129:0.00331809 130:0.00487601 131:0.00467008 132:0.00454907 133:0.00429225 134:0.00380212 135:0.00328423 136:0.00314176 137:0.00290344 138:0.00259334 139:0.00286125 140:0.00241127 141:0.00223531 142:0.00197183 143:0.00197794 144:0.00172963 145:0.00160381 146:0.00153961 147:0.00136605 148:0.00125393 149:0.00118787 150:0.00103023 151:0.000853159 152:0.000780073 153:0.000743068 154:0.000709023 155:0.000575988 156:0.000601522 157:0.000499942 158:0.000530842 159:0.000460902 160:0.00041224 161:0.000484955 162:0.000470338 163:0.000334899 164:0.0004115 165:0.000361912 166:0.000389481 167:0.000321022 168:0.00027717 169:0.000218147 170:0.000193353 171:0.000284571 172:0.000285126 173:0.00023924 174:0.000215371 175:0.000284386 176:0.000189467 177:0.000247011 178:0.000145801 179:0.000215556 180:0.000236094 181:0.000216111 182:0.000155793 183:0.000197424 184:0.000147651 185:0.000135625 186:0.000284016 187:0.000261813 188:0.000322872 189:0.000392442 190:0.0003077 191:0.000210005 193:2.36834e-05 194:0.000118417 195:0.000467748 196:0.000728266 197:0.00119009 198:0.00145653 199:0.00200125 200:0.00226769 201:0.0029249 202:0.00338673 203:0.00351699 204:0.00366501 205:0.00409131 206:0.00404987 207:0.00436959 208:0.00353475 209:0.00405579 210:0.00342226 211:0.00342226 212:0.00294859 213:0.00283609 214:0.00243939 215:0.00247492 216:0.00194796 217:0.00188283 218:0.00175257 219:0.00136772 220:0.00129075 221:0.0010776 222:0.00106575 223:0.000929575 224:0.000888129 225:0.000751949 226:0.000526956 227:0.000390777 228:0.000337489 229:0.000378935 230:0.000337489 231:0.000219072 232:0.000171705 233:0.000165784 234:6.51294e-05 235:7.69712e-05 236:5.92086e-05 237:4.1446e-05 238:1.77626e-05 239:5.92086e-06 240:1.77626e-05 241:2.96043e-05 244:5.92086e-06 247:5.92086e-06 256:1.18417e-05 257:5.32877e-05 258:0.000284201 259:0.000728266 260:0.000959179 261:0.00112496 262:0.00104799 263:0.00115457 264:0.00119009 265:0.00120193 266:0.000923654 267:0.000781553 268:0.000769712 269:0.000509194 270:0.00055064 271:0.000426302 272:0.000248676 273:0.000224993 274:0.000153942 275:3.55252e-05 276:5.32877e-05 277:1.77626e-05 278:5.92086e-06 321:1.18417e-05 323:8.2892e-05 324:0.000248676 325:0.000296043 326:0.000438143 327:0.000592086 328:0.000544719 329:0.00082892 330:0.000935496 331:0.00120786 332:0.00131443 333:0.00148021 334:0.00161047 335:0.00181178 336:0.00198941 337:0.00191836 338:0.00226177 339:0.00204862 340:0.00215519 341:0.00208414 342:0.00243939 343:0.00251044 344:0.00213151 345:0.0022144 346:0.00222624 347:0.00216703 348:0.00208414 349:0.00182362 350:0.00188283 351:0.00165784 352:0.00161047 353:0.00166968 354:0.00137364 355:0.00148021 356:0.00127891 357:0.00129075 358:0.00114865 359:0.00105391 360:0.000923654 361:0.000840762 362:0.000817078 363:0.000532877 364:0.000426302 365:0.000449985 366:0.00041446 367:0.000296043 368:0.000153942 369:0.000153942 370:0.000189467 371:4.73669e-05 372:7.10503e-05 373:5.92086e-05 374:8.2892e-05 375:3.55252e-05 376:4.73669e-05 377:1.18417e-05 378:3.55252e-05 381:1.18417e-05 383:1.18417e-05 384:4.1446e-05 385:0.00687412 386:0.0101602 387:0.0113207 388:0.0128246 389:0.013843 390:0.0123628 391:0.0114865 392:0.00975757 393:0.00971613 394:0.0111845 395:0.0104681 396:0.0100951 397:0.00962139 398:0.00802868 399:0.00830696 400:0.00898786 401:0.00778593 402:0.008005 403:0.00722345 404:0.00615177 405:0.00677938 406:0.007182 407:0.00693332 408:0.00540574 409:0.00531693 410:0.00460051 411:0.00528141 412:0.0051097 413:0.00502681 414:0.00538798 415:0.00412684 416:0.00409723 417:0.00413868 418:0.00416236 419:0.00328016 420:0.00294267 421:0.00222032 422:0.00216111 423:0.00256373 424:0.00216111 425:0.00194204 426:0.00187691 427:0.00140916 428:0.00127891 429:0.00160455 430:0.00127298 431:0.0009651 432:0.000521036 433:0.000331568 434:0.000189467 435:7.10503e-05 453:0.000307885 454:0.000781553 455:0.00198941 456:0.00156311 457:0.00201309 458:0.00369462 459:0.00134996 460:0.000307885 461:7.10503e-05 463:0.000118417 464:4.73669e-05 481:9.47337e-05 482:0.000213151 483:9.47337e-05 484:9.47337e-05 490:0.000118417 491:7.10503e-05 522:9.47337e-05 523:0.00222624 524:0.00367093 525:0.00381303 526:0.00383672 527:0.0044288 528:0.00447617 529:0.00277096 530:0.00369462 531:0.00362357 532:0.00246308 533:0.00322095 534:0.00381303 535:0.00476037 536:0.00395513 537:0.00348146 538:0.00324463 539:0.0049972 540:0.00490247 541:0.00627611 542:0.00592086 543:0.00426302 544:0.00558929 545:0.00847867 546:0.00802868 547:0.00741291 548:0.00632348 549:0.0037183 550:0.00532877 551:0.00589717 552:0.00760238 553:0.00812342 554:0.00660768 555:0.00506825 556:0.00788658 557:0.00836025 558:0.00575507 559:0.00447617 560:0.00383672 561:0.00191836 562:0.0034341 563:0.00404987 564:0.00350515 565:0.0045709 566:0.0042867 567:0.00236834 568:0.00310253 569:0.00423933 570:0.00243939 571:0.00172889 572:0.00111312 573:0.000165784 574:9.47337e-05 575:0.000142101 590:3.55252e-05 591:9.47337e-05 592:1.18417e-05 593:9.47337e-05 594:3.55252e-05 595:0.000355251 596:0.000177626 597:0.000367093 598:0.000532877 599:0.000603928 600:0.000509194 601:0.000438143 602:0.000663136 603:0.000331568 604:0.000426302 605:0.000532877 606:0.000627611 607:0.000959179 608:0.00112496 609:0.00123154 610:0.000982862 611:0.00089997 612:0.000982862 613:0.00119601 614:0.00089997 615:0.000722345 616:0.0011368 617:0.00183547 618:0.0010776 619:0.00185915 620:0.00184731 621:0.000888129 622:0.00272359 623:0.00254597 624:0.00303148 625:0.00243939 626:0.00584981 627:0.00283017 628:0.00539982 629:0.00959179 630:0.00691556 631:0.00759054 632:0.00780369 633:0.00856156 634:0.0114746 635:0.00658399 636:0.00652479 637:0.00144469 640:0.434595 
1 0:0.00434064 1:0.0230161 2:0.0224113 3:0.0182593 4:0.0145525 5:0.0114106 6:0.00917214 7:0.00765829 8:0.00656362 9:0.00593972 10:0.00577603 11:0.00532217 12:0.00499816 13:0.00365858 14:0.00312435 15:0.00258886 16:0.00206563 17:0.00176383 18:0.00166147 19:0.00159274 20:0.00153289 21:0.00120381 22:0.000958899 23:0.00118414 24:0.000910045 25:0.000885301 26:0.000909199 27:0.000760944 28:0.000605498 29:0.000616284 30:0.00062284 31:0.000664716 32:0.000509693 33:0.000533803 34:0.000506732 35:0.000383221 36:0.000507789 37:0.00036038 38:0.000391469 39:0.00036313 40:0.000468452 41:0.000427634 42:0.000443073 43:0.000388297 44:0.000348114 45:0.000314698 46:0.000372224 47:0.000399929 48:0.000354459 49:0.0005632 50:0.000490659 51:0.000425308 52:0.000519844 53:0.000491293 54:0.000463588 55:0.000470144 56:0.000423616 57:0.000456397 58:0.000448149 59:0.000205358 60:0.000196052 61:0.000259922 62:0.000170673 63:0.000115685 64:3.59534e-05 65:0.000153965 66:0.000165386 67:0.000164117 68:0.000181248 69:0.000193937 70:0.000186535 71:0.000181248 72:0.000190765 73:0.000210433 74:0.00015037 75:0.00016454 76:0.000172365 77:0.000148044 78:0.000130913 79:0.000134508 80:0.000142122 81:0.000126894 82:0.000150158 83:0.000115262 84:0.000105534 85:9.85547e-05 86:0.000120761 87:0.000108918 88:0.000105534 89:0.000113571 90:7.95205e-05 91:8.52308e-05 92:6.68311e-05 93:7.88861e-05 94:7.29643e-05 95:8.39619e-05 96:5.90059e-05 97:6.9369e-05 98:6.59851e-05 99:7.31758e-05 100:7.21184e-05 101:6.36587e-05 102:6.8946e-05 103:5.94289e-05 104:6.13323e-05 105:8.26929e-05 106:7.10609e-05 107:5.32957e-05 108:6.30243e-05 109:5.92174e-05 110:6.19668e-05 111:4.82199e-05 112:4.54705e-05 113:5.71025e-05 114:5.51991e-05 115:5.56221e-05 116:5.45646e-05 117:5.43531e-05 118:5.71025e-05 119:5.11808e-05 120:4.92774e-05 121:5.92174e-05 122:4.20867e-05 123:3.76454e-05 124:6.28128e-05 125:5.79485e-05 126:7.21184e-05 127:2.60134e-05 128:0.000424251 129:0.00240063 130:0.00294057 131:0.00328826 132:0.00305224 133:0.00271998 134:0.00247529 135:0.00224709 136:0.00176362 137:0.00183278 138:0.00165893 139:0.00177991 140:0.00176616 141:0.00146056 142:0.00119577 143:0.00106253 144:0.000901585 145:0.000771941 146:0.000811913 147:0.000715473 148:0.000719703 149:0.000518787 150:0.000523228 151:0.000518364 152:0.000378146 153:0.000485794 154:0.000410081 155:0.000378146 156:0.000282763 157:0.000354459 158:0.000403524 159:0.000430807 160:0.000315967 161:0.000230948 162:0.000285301 163:0.000328022 164:0.000269228 165:0.000217201 166:0.000179767 167:0.000237927 168:0.000187169 169:0.000144448 170:0.000130913 171:5.87944e-05 172:0.000137892 173:0.000176383 174:0.000166866 175:0.000177864 176:0.000183997 177:0.000193726 178:0.000146986 179:0.000218047 180:0.0001859 181:0.000240677 182:0.000235389 183:0.000297779 184:0.000187592 185:0.000199224 186:0.00022693 187:0.000149101 188:0.000215932 189:9.96122e-05 190:0.000186746 191:8.41733e-05 193:2.03031e-05 194:6.09094e-05 195:0.000297779 196:0.000629397 197:0.00113697 198:0.00177314 199:0.00230102 200:0.00295072 201:0.00364103 202:0.00408093 203:0.00444638 204:0.00452759 205:0.00503517 206:0.00582699 207:0.00520437 208:0.00528558 209:0.0049878 210:0.00525174 211:0.00470356 212:0.00446669 213:0.00428396 214:0.00395234 215:0.00347183 216:0.00311991 217:0.00307931 218:0.00276122 219:0.00223334 220:0.00184758 221:0.00186112 222:0.00161071 223:0.00113697 224:0.00113697 225:0.000845963 226:0.000697074 227:0.000507578 228:0.000378992 229:0.000433133 230:0.000257173 231:0.000216567 232:0.000155657 233:0.000128586 234:2.03031e-05 235:4.73739e-05 236:3.38385e-05 237:6.76771e-06 238:2.03031e-05 256:2.70708e-05 257:0.000101516 258:0.000311314 259:0.000629397 260:0.00091364 261:0.00112344 262:0.00126556 263:0.00111667 264:0.000994853 265:0.00110314 266:0.00116405 267:0.000961014 268:0.000751215 269:0.000575255 270:0.00056172 271:0.000399295 272:0.000270708 273:0.000291011 274:0.000189496 275:0.000189496 276:0.000128586 277:7.44448e-05 278:6.76771e-05 279:3.38385e-05 280:6.76771e-06 281:6.76771e-06 282:6.76771e-06 288:6.76771e-06 323:4.06062e-05 324:6.76771e-05 325:8.12125e-05 326:0.000135354 327:0.000257173 328:0.000284244 329:0.000338385 330:0.000527881 331:0.000730912 332:0.000676771 333:0.000703841 334:0.0006497 335:0.000690306 336:0.000866266 337:0.00097455 338:0.00101516 339:0.000893337 340:0.0010693 341:0.00113697 342:0.00128586 343:0.0011099 344:0.00159718 345:0.00117758 346:0.00146182 347:0.00128586 348:0.00117758 349:0.00139415 350:0.00128586 351:0.00159718 352:0.0012994 353:0.00144829 354:0.0012994 355:0.00135354 356:0.00128586 357:0.00125879 358:0.000906873 359:0.00112344 360:0.00119112 361:0.000703841 362:0.000771518 363:0.000676771 364:0.000703841 365:0.000730912 366:0.00050081 367:0.000541416 368:0.000460204 369:0.000311314 370:0.000351921 371:0.000189496 372:0.000121819 373:0.00017596 374:6.76771e-05 375:0.000135354 376:0.000121819 377:4.06062e-05 378:5.41416e-05 379:2.70708e-05 380:1.35354e-05 381:1.35354e-05 382:1.35354e-05 383:1.35354e-05 384:0.000318082 385:0.0103343 386:0.014422 387:0.0130684 388:0.0134745 389:0.0139279 390:0.0116337 391:0.0115931 392:0.0107607 393:0.0110652 394:0.0107065 395:0.0100433 396:0.010984 397:0.0100162 398:0.0106794 399:0.0101922 400:0.00961691 401:0.00958307 402:0.00812125 403:0.00908903 404:0.00787761 405:0.00748508 406:0.00715346 407:0.00707225 408:0.00682185 409:0.00720084 410:0.00742417 411:0.00594205 412:0.00642932 413:0.00521113 414:0.00579992 415:0.0056578 416:0.00554275 417:0.00417567 418:0.00429073 419:0.00447345 420:0.00400648 421:0.00415537 422:0.00356658 423:0.00356658 424:0.00374254 425:0.00288981 426:0.0028086 427:0.0021386 428:0.00305224 429:0.00307931 430:0.00218597 431:0.00260557 432:0.00215213 433:0.00237546 434:0.00157688 435:0.00158364 436:0.00184758 437:0.0015295 438:0.00177314 439:0.00097455 440:0.00073768 441:0.00082566 442:0.000216567 443:0.000473739 444:0.000514346 445:0.000778286 446:0.000338385 447:0.000128586 456:0.000703841 457:0.00159718 458:0.00173253 459:0.00203031 460:0.00184082 461:0.00184082 462:0.000730912 463:0.000406062 472:0.000135354 475:8.12125e-05 483:5.41416e-05 484:0.000162425 485:0.000135354 486:0.000351921 488:0.000108283 524:0.000406062 525:0.00135354 526:0.00173253 527:0.00365456 528:0.00354628 529:0.00297779 530:0.00322143 531:0.00232809 532:0.00281537 533:0.00360042 534:0.00219274 535:0.00381699 536:0.00381699 537:0.00508931 538:0.00506224 539:0.0043584 540:0.00473739 541:0.00498103 542:0.00571194 543:0.00446669 544:0.00425012 545:0.00406062 546:0.00205738 547:0.00422305 548:0.00362749 549:0.00498103 550:0.003059 551:0.00449376 552:0.00682185 553:0.00503517 554:0.00446669 555:0.00452083 556:0.0045479 557:0.00346507 558:0.00186789 559:0.00211152 560:0.00238223 561:0.00286951 562:0.0025988 563:0.00349214 564:0.00338385 565:0.0017596 566:0.00159718 567:0.00151597 568:0.00097455 569:0.000162425 570:0.000270708 571:0.000866266 572:0.00102869 573:0.00032485 574:8.12125e-05 590:0.000297779 591:5.41416e-05 593:0.000284244 594:9.47479e-05 596:1.35354e-05 597:0.000351921 598:0.00032485 599:0.00017596 600:0.000365456 601:0.00082566 602:0.000527881 603:0.000636164 604:0.000392527 605:0.000351921 606:0.00113697 607:6.76771e-05 608:0.00124526 609:0.000757983 610:0.000406062 611:0.000906873 612:0.000771518 613:0.00104223 614:0.000879802 615:0.000812125 616:0.000270708 617:0.00170546 618:0.00174607 619:0.00180021 620:0.00204385 621:0.00186789 622:0.00319436 623:0.00327557 624:0.0017596 625:0.00190849 626:0.00438547 627:0.00330264 628:0.00281537 629:0.00462911 630:0.0041283 631:0.00466972 632:0.00415537 633:0.00269355 634:0.00614508 635:0.00499457 636:0.00408769 637:8.12125e-05 640:0.488658 
1 0:0.00158575 1:0.0129589 2:0.01653 3:0.0165117 4:0.0145754 5:0.0128948 6:0.0122679 7:0.0108823 8:0.00944152 9:0.00870296 10:0.00870345 11:0.00709444 12:0.00662409 13:0.00625369 14:0.00569352 15:0.00561112 16:0.00567991 17:0.00483248 18:0.00475033 19:0.00452047 20:0.00418768 21:0.00374058 22:0.00396426 23:0.00352904 24:0.00318017 25:0.00344986 26:0.00316557 27:0.00278156 28:0.00287583 29:0.00258783 30:0.00245496 31:0.00234535 32:0.00230329 33:0.00245125 34:0.00216028 35:0.00212118 36:0.00204349 37:0.00200093 38:0.00169536 39:0.00164365 40:0.00169437 41:0.00169586 42:0.00167928 43:0.00170229 44:0.00150089 45:0.0016053 46:0.00146352 47:0.00145907 48:0.00158204 49:0.0014467 50:0.00136183 51:0.00143928 52:0.0014128 53:0.00120447 54:0.00118987 55:0.00118863 56:0.00151722 57:0.00150435 58:0.00140587 59:0.00129899 60:0.00135342 61:0.0013747 62:0.00136876 63:0.000691555 64:9.64961e-06 65:4.57738e-05 66:8.70939e-05 67:9.55064e-05 68:0.000104166 69:0.000111589 70:0.000120002 71:0.000120002 72:0.000129651 73:8.04134e-05 74:0.000131878 75:0.000120496 76:0.000119259 77:0.000138806 78:0.000119259 79:9.3527e-05 80:0.000104166 81:0.000111094 82:0.000125692 83:9.22899e-05 84:0.000115795 85:0.000134352 86:0.000120496 87:0.000138064 88:9.25373e-05 89:0.000122228 90:9.47641e-05 91:0.000123713 92:0.000137321 93:0.000129404 94:0.000108125 95:0.000124703 96:0.000108125 97:0.00012495 98:7.99186e-05 99:0.000121486 100:9.55064e-05 101:9.77332e-05 102:0.000102187 103:0.000103671 104:0.000100207 105:0.000133857 106:0.000127424 107:0.000108867 108:9.92178e-05 109:0.000111837 110:0.000111342 111:9.1795e-05 112:8.48671e-05 113:0.000127672 114:9.45167e-05 115:0.000123466 116:9.77332e-05 117:8.41248e-05 118:8.23928e-05 119:0.000110847 120:0.000105403 121:9.60012e-05 122:7.99186e-05 123:9.87229e-05 124:8.85785e-05 125:9.62487e-05 126:8.61042e-05 127:5.59183e-05 128:4.1815e-05 129:0.000406768 130:0.000565616 131:0.00069403 132:0.000694524 133:0.000658648 134:0.000764793 135:0.000562152 136:0.000531966 137:0.000494604 138:0.000623513 139:0.000452047 140:0.000579966 141:0.000393655 142:0.000554729 143:0.000479017 144:0.000444377 145:0.000321159 146:0.000506976 147:0.000466398 148:0.000340458 149:0.000322891 150:0.000387964 151:0.000360252 152:0.000320664 153:0.000306066 154:0.000330066 155:0.000271674 156:0.000277117 157:0.00028553 158:0.000298643 159:0.00028454 160:0.000253612 161:0.000199673 162:0.000214023 163:0.000204126 164:0.000146229 165:0.000169487 166:0.000180126 167:0.000146724 168:0.000181858 169:0.000156126 170:0.000197693 171:0.000162559 172:0.000217735 173:8.68465e-05 174:0.000144744 175:0.000123466 176:0.000131383 177:7.27432e-05 178:0.00016726 179:0.000184827 180:0.000100207 181:0.000154641 182:0.000215508 183:0.000106393 184:0.000209322 185:9.97126e-05 186:0.00015761 187:0.000150188 188:0.000113816 189:7.44752e-05 190:6.77947e-05 191:4.89903e-05 193:2.37529e-05 194:0.000221694 195:0.000498811 196:0.00102929 197:0.00149643 198:0.00209025 199:0.00247822 200:0.00304037 201:0.00330165 202:0.00384797 203:0.00437053 204:0.00475849 205:0.00504353 206:0.00517813 207:0.00597781 208:0.00573236 209:0.00574028 210:0.00583529 211:0.00568486 212:0.00556609 213:0.0052098 214:0.00524939 215:0.00525731 216:0.00506728 217:0.00410133 218:0.00437845 219:0.00390339 220:0.0035471 221:0.00340458 222:0.00323831 223:0.00281868 224:0.00245447 225:0.00227236 226:0.00180522 227:0.00167854 228:0.00171813 229:0.00146476 230:0.00111639 231:0.00129849 232:0.00103721 233:0.000783845 234:0.000696751 235:0.000498811 236:0.000514646 237:0.000308788 238:0.000205858 239:0.000205858 240:9.50116e-05 241:0.000150435 242:8.70939e-05 243:7.12587e-05 244:5.54234e-05 245:1.58353e-05 246:5.54234e-05 247:3.95881e-05 251:7.91763e-06 256:7.91763e-06 257:8.70939e-05 258:0.000277117 259:0.000538399 260:0.000958033 261:0.00093428 262:0.00123515 263:0.00105304 264:0.00121931 265:0.00136975 266:0.0012589 267:0.00114806 268:0.00093428 269:0.000886774 270:0.000712587 271:0.000562152 272:0.000427552 273:0.000324623 274:0.000213776 275:8.70939e-05 276:3.16705e-05 324:1.58353e-05 325:1.58353e-05 326:6.3341e-05 327:6.3341e-05 328:0.000126682 329:9.50116e-05 330:0.000158353 331:0.000126682 332:0.000126682 333:0.000205858 334:0.000190023 335:0.000253364 336:0.000285035 337:0.000348376 338:0.000285035 339:0.00033254 340:0.000316705 341:0.00033254 342:0.000364211 343:0.000427552 344:0.000427552 345:0.000364211 346:0.000348376 347:0.000285035 348:0.000411717 349:0.000459222 350:0.000443387 351:0.000506728 352:0.000506728 353:0.000427552 354:0.000506728 355:0.000617575 356:0.000649246 357:0.000443387 358:0.000380046 359:0.00030087 360:0.000490893 361:0.000348376 362:0.000348376 363:0.000158353 364:0.000285035 365:0.000205858 366:0.000285035 367:9.50116e-05 368:0.000126682 369:0.000221694 370:0.000174188 371:0.000126682 372:0.000110847 373:0.000110847 374:7.91763e-05 375:0.000110847 376:6.3341e-05 377:4.75058e-05 378:1.58353e-05 379:4.75058e-05 380:1.58353e-05 381:1.58353e-05 383:1.58353e-05 384:7.91763e-05 385:0.00560568 386:0.00953283 387:0.0122248 388:0.0147268 389:0.0159303 390:0.0161916 391:0.0159144 392:0.0153206 393:0.0149881 394:0.0146872 395:0.0141646 396:0.0125653 397:0.0119715 398:0.0118527 399:0.0116389 400:0.0107759 401:0.0105542 402:0.00965951 403:0.00950907 404:0.00932697 405:0.00962784 406:0.00870147 407:0.00832143 408:0.00860646 409:0.00859854 410:0.00845603 411:0.00799681 412:0.0078147 413:0.00716545 414:0.00739507 415:0.00665081 416:0.0066033 417:0.0069596 418:0.00684875 419:0.00653996 420:0.00607282 421:0.00617575 422:0.00585113 423:0.00555026 424:0.0057957 425:0.00554234 426:0.00536815 427:0.00490101 428:0.00499602 429:0.00464765 430:0.00494852 431:0.00452888 432:0.00438637 433:0.00353126 434:0.00365003 435:0.00344417 436:0.00304829 437:0.00265241 438:0.00227236 439:0.00239112 440:0.00195565 441:0.00159936 442:0.00151227 443:0.00106888 444:0.000760092 445:0.00076801 446:0.000308788 447:7.91763e-06 454:0.000190023 455:6.3341e-05 456:6.3341e-05 457:9.50116e-05 458:6.3341e-05 523:6.3341e-05 524:0.000126682 525:9.50116e-05 526:9.50116e-05 527:0.000221694 528:9.50116e-05 529:0.000190023 530:0.000158353 531:0.000158353 532:0.000126682 533:0.000475058 534:0.000570069 535:0.000506728 536:0.000506728 537:0.000538399 538:0.000760092 539:0.000823433 540:0.000728422 541:0.000918445 542:0.000823433 543:0.00110847 544:0.00145684 545:0.00180522 546:0.00152018 547:0.00177355 548:0.00177355 549:0.00190023 550:0.00177355 551:0.00158353 552:0.00145684 553:0.00152018 554:0.00155186 555:0.00148851 556:0.00228028 557:0.00209025 558:0.00209025 559:0.00209025 560:0.00180522 561:0.00152018 562:0.00183689 563:0.00148851 564:0.00183689 565:0.0010768 566:0.00104513 567:0.00129849 568:0.00145684 569:0.000886774 570:0.000696751 571:0.00063341 572:0.000696751 573:0.000506728 574:0.000411717 575:0.000253364 602:7.91763e-05 603:3.16705e-05 605:3.16705e-05 606:4.75058e-05 608:0.000142517 609:9.50116e-05 610:1.58353e-05 611:4.75058e-05 612:7.91763e-05 613:3.16705e-05 614:7.91763e-05 615:0.000142517 616:0.000237529 617:0.000205858 618:0.000221694 619:0.000348376 620:0.000522564 621:0.000490893 622:0.000538399 623:0.000570069 624:0.000538399 625:0.000744257 626:0.000696751 627:0.000665081 628:0.00120348 629:0.00133016 630:0.00144101 631:0.00150435 632:0.0022011 633:0.00223277 634:0.00264449 635:0.00368962 636:0.00424385 637:0.000253364 640:0.486884 
1 0:0.000753343 1:0.00482265 2:0.00601376 3:0.00623071 4:0.00622705 5:0.00567199 6:0.00545829 7:0.00522875 8:0.00502053 9:0.00462092 10:0.00464751 11:0.00451397 12:0.00403846 13:0.00385703 14:0.00359015 15:0.0038207 16:0.00317289 17:0.00315483 18:0.00303651 19:0.00268784 20:0.00287618 21:0.00291778 22:0.00278445 23:0.00259834 24:0.00210904 25:0.00218149 26:0.00213988 27:0.00196494 28:0.0018724 29:0.00187402 30:0.0018724 31:0.00192212 32:0.00171613 33:0.00143383 34:0.00150953 35:0.00150831 36:0.00142084 37:0.00136158 38:0.00140562 39:0.00126538 40:0.00135995 41:0.00125503 42:0.00126213 43:0.00122215 44:0.00126518 45:0.00100662 46:0.00110323 47:0.000967656 48:0.00093559 49:0.000909816 50:0.00101271 51:0.00104214 52:0.000872068 53:0.000915093 54:0.000882824 55:0.000892971 56:0.00082336 57:0.000914687 58:0.000833913 59:0.000941679 60:0.000872879 61:0.000841625 62:0.000881403 63:0.00039311 64:1.21769e-05 65:4.6678e-05 66:8.74706e-05 67:9.31531e-05 68:0.000145514 69:0.000120551 70:0.000129684 71:0.000122581 72:0.000121363 73:0.000134352 74:0.000107562 75:0.00011771 76:0.000124407 77:0.000129887 78:0.000118725 79:9.53856e-05 80:0.000115477 81:0.000115883 82:9.27472e-05 83:0.000111621 84:0.000108577 85:0.000104112 86:0.000103503 87:0.000108577 88:0.000111824 89:9.74151e-05 90:0.000103909 91:0.000112027 92:9.86327e-05 93:8.32087e-05 94:7.63085e-05 95:9.90386e-05 96:0.000111216 97:7.50908e-05 98:8.28028e-05 99:9.17325e-05 100:9.09207e-05 101:8.82824e-05 102:9.33561e-05 103:8.46293e-05 104:0.000108983 105:9.17325e-05 106:9.01089e-05 107:8.78765e-05 108:5.98697e-05 109:0.000103098 110:8.46293e-05 111:7.65114e-05 112:9.70092e-05 113:8.15851e-05 114:8.80794e-05 115:8.68618e-05 116:8.42234e-05 117:8.5847e-05 118:8.30057e-05 119:0.000105736 120:6.96112e-05 121:8.5847e-05 122:9.23414e-05 123:7.63085e-05 124:8.54411e-05 125:7.32642e-05 126:7.91497e-05 127:4.6881e-05 128:0.000425582 129:0.0021413 130:0.00219732 131:0.00209077 132:0.00211107 133:0.00207981 134:0.00203009 135:0.00184723 136:0.00163434 137:0.00158604 138:0.00150303 139:0.00147178 140:0.00131937 141:0.00137497 142:0.00113164 143:0.00117852 144:0.0010876 145:0.0010604 146:0.000953653 147:0.000999113 148:0.000948782 149:0.000986936 150:0.000952232 151:0.000938026 152:0.00098653 153:0.000739137 154:0.000739948 155:0.000824375 156:0.000781147 157:0.0007091 158:0.000681094 159:0.000659378 160:0.000672976 161:0.000723104 162:0.000591391 163:0.000561354 164:0.000599711 165:0.00065329 166:0.000586317 167:0.000560137 168:0.000525229 169:0.000553642 170:0.00047916 171:0.000473478 172:0.000445065 173:0.000510211 174:0.000348868 175:0.000403664 176:0.000522185 177:0.000484843 178:0.000447297 179:0.000398387 180:0.000353941 181:0.000463939 182:0.000341764 183:0.000493773 184:0.000351912 185:0.000398184 186:0.000418885 187:0.00049154 188:0.000293463 189:0.00041239 190:0.000308887 191:0.000187524 193:1.9483e-05 194:0.000142875 195:0.000513053 196:0.00088323 197:0.00125341 198:0.00200675 199:0.00222756 200:0.00272113 201:0.00326665 202:0.00364982 203:0.00385764 204:0.00420184 205:0.00396155 206:0.00453305 207:0.00478633 208:0.0042408 209:0.00457201 210:0.00457201 211:0.00411092 212:0.00401999 213:0.00356539 214:0.00346148 215:0.00320171 216:0.00305883 217:0.00295492 218:0.00250032 219:0.00219509 220:0.00221457 221:0.00165606 222:0.00166255 223:0.00118846 224:0.00111703 225:0.0010326 226:0.000753343 227:0.000642939 228:0.000552019 229:0.000376672 230:0.000298739 231:0.000298739 232:0.000259773 233:0.00019483 234:0.000103909 235:9.09207e-05 236:4.54604e-05 237:2.59773e-05 238:2.59773e-05 239:1.29887e-05 240:1.29887e-05 241:1.29887e-05 257:9.74151e-05 258:0.000370177 259:0.00077932 260:0.00105208 261:0.00120145 262:0.00119496 263:0.00133134 264:0.00133134 265:0.00105208 266:0.000857252 267:0.00100013 268:0.000649434 269:0.000558513 270:0.000396155 271:0.000266268 272:0.000155864 273:8.44264e-05 274:3.8966e-05 275:1.29887e-05 276:6.49434e-06 277:6.49434e-06 322:5.19547e-05 323:2.59773e-05 324:0.000246785 325:0.00038966 326:0.000376672 327:0.000571502 328:0.000727366 329:0.000831275 330:0.00101312 331:0.000987139 332:0.00097415 333:0.00102611 334:0.00128588 335:0.0013768 336:0.00100013 337:0.00136381 338:0.00154565 339:0.00141577 340:0.00145473 341:0.00159761 342:0.00174048 343:0.00170152 344:0.00170152 345:0.00151967 346:0.0016106 347:0.00157163 348:0.00155864 349:0.00131186 350:0.00155864 351:0.0013768 352:0.00131186 353:0.0012599 354:0.001143 355:0.00109105 356:0.00110404 357:0.00101312 358:0.00122094 359:0.000909207 360:0.000701388 361:0.000792309 362:0.000675411 363:0.0006884 364:0.000428626 365:0.000441615 366:0.000376672 367:0.000363683 368:0.000272762 369:0.000246785 370:0.000155864 371:9.09207e-05 372:9.09207e-05 373:7.7932e-05 374:0.000155864 375:5.19547e-05 376:7.7932e-05 377:3.8966e-05 378:1.29887e-05 379:1.29887e-05 380:3.8966e-05 383:1.29887e-05 384:0.000168853 385:0.00440965 386:0.00718274 387:0.0101636 388:0.0104039 389:0.0130147 390:0.0129692 391:0.0138784 392:0.0130601 393:0.013242 394:0.0127029 395:0.0124821 396:0.0124756 397:0.0118522 398:0.0113456 399:0.0108066 400:0.0105923 401:0.0100662 402:0.00948173 403:0.00912454 404:0.00892971 405:0.00861799 406:0.00795556 407:0.00748148 408:0.00662422 409:0.00626703 410:0.00640991 411:0.00577347 412:0.00582542 413:0.00526691 414:0.00515001 415:0.00448759 416:0.00468242 417:0.00433822 418:0.00381867 419:0.00403948 420:0.00369528 421:0.00365631 422:0.00337056 423:0.00335757 424:0.00250032 425:0.00243538 426:0.00213664 427:0.00175997 428:0.00166904 429:0.00155215 430:0.0013768 431:0.00121444 432:0.00105208 433:0.00107806 434:0.000785815 435:0.00073386 436:0.000526041 437:0.000415638 438:0.000285751 439:0.000220807 440:0.000201324 441:0.000110404 442:9.74151e-05 443:6.49434e-05 444:3.24717e-05 445:1.9483e-05 453:2.59773e-05 454:0.000103909 455:0.000415638 456:0.000649434 457:0.00103909 458:0.0013768 459:0.00200026 460:0.00163657 461:0.000831275 462:0.00088323 463:0.00038966 464:0.000129887 465:2.59773e-05 466:0.000129887 467:2.59773e-05 468:2.59773e-05 469:2.59773e-05 470:0.000129887 471:5.19547e-05 478:2.59773e-05 480:0.000103909 481:7.7932e-05 490:2.59773e-05 522:0.000155864 523:0.000545524 524:0.000961162 525:0.00129887 526:0.00267567 527:0.00361085 528:0.00353292 529:0.00353292 530:0.00371476 531:0.00358487 532:0.0038966 533:0.00392258 534:0.00483179 535:0.00392258 536:0.00444213 537:0.00472788 538:0.00477983 539:0.00488374 540:0.00459799 541:0.00431224 542:0.00485776 543:0.00475385 544:0.00540329 545:0.00555915 546:0.00540329 547:0.00563708 548:0.00462397 549:0.00514351 550:0.00480581 551:0.00490972 552:0.00501363 553:0.00462397 554:0.00464995 555:0.00503961 556:0.00452006 557:0.00483179 558:0.0041304 559:0.00426028 560:0.0038966 561:0.00407844 562:0.00366281 563:0.00345499 564:0.0033251 565:0.00293544 566:0.00298739 567:0.00262371 568:0.00205221 569:0.00140278 570:0.00119496 571:0.00124691 572:0.001143 573:0.000415638 574:0.000181841 575:5.19547e-05 591:1.29887e-05 592:1.29887e-05 593:7.7932e-05 594:1.29887e-05 596:3.8966e-05 598:5.19547e-05 599:5.19547e-05 600:5.19547e-05 601:6.49434e-05 602:6.49434e-05 603:0.000168853 604:6.49434e-05 605:0.000116898 606:0.000168853 607:7.7932e-05 608:0.000259773 609:0.000246785 610:0.000220807 611:0.000259773 612:0.000506558 613:0.000571502 614:0.000610468 615:0.000896218 616:0.000519547 617:0.000870241 618:0.000870241 619:0.00058449 620:0.001143 621:0.000805298 622:0.00232497 623:0.00176646 624:0.00198727 625:0.00120795 626:0.00437718 627:0.00246785 628:0.00393557 629:0.00709182 630:0.00723469 631:0.00892322 632:0.0104948 633:0.010287 634:0.00950771 635:0.00931288 636:0.00464995 637:0.000402649 640:0.414157 
1 0:0.00139307 1:0.00674026 2:0.00830172 3:0.00917781 4:0.00895161 5:0.00865272 6:0.00827041 7:0.00816267 8:0.00728439 9:0.00700039 10:0.00683617 11:0.00657779 12:0.00617642 13:0.00581293 14:0.00549171 15:0.00493947 16:0.00498524 17:0.00440366 18:0.00433162 19:0.00449278 20:0.00406426 21:0.00396769 22:0.00378048 23:0.00332174 24:0.0033421 25:0.00306905 26:0.00284921 27:0.00296351 28:0.00226631 29:0.0024555 30:0.00221639 31:0.00204165 32:0.00196217 33:0.00163832 34:0.0016508 35:0.00159627 36:0.00150321 37:0.00147562 38:0.00124023 39:0.00130548 40:0.00128578 41:0.00126717 42:0.00112943 43:0.0010309 44:0.00111389 45:0.000957545 46:0.00104579 47:0.000919226 48:0.000863608 49:0.000989296 50:0.000887695 51:0.000747117 52:0.000802078 53:0.000911562 54:0.000801421 55:0.00079748 56:0.000896234 57:0.000831858 58:0.000821347 59:0.000770109 60:0.000915066 61:0.000874338 62:0.000677048 63:0.000467715 64:8.1018e-06 65:4.31366e-05 66:6.0873e-05 67:6.61282e-05 68:7.90473e-05 69:0.000102696 70:0.000102039 71:0.000101163 72:8.40835e-05 73:9.65647e-05 74:0.000100068 75:0.000103134 76:0.000109046 77:0.000116491 78:9.37181e-05 79:0.000109703 80:0.000108608 81:9.4594e-05 82:0.000108827 83:0.000116053 84:9.76595e-05 85:8.95577e-05 86:9.32802e-05 87:9.94113e-05 88:0.000112111 89:8.91198e-05 90:8.71491e-05 91:7.68576e-05 92:7.20403e-05 93:8.86819e-05 94:8.60543e-05 95:0.000110579 96:0.000108827 97:8.71491e-05 98:9.41561e-05 99:7.20403e-05 100:6.78799e-05 101:8.14559e-05 102:7.29162e-05 103:7.423e-05 104:8.91198e-05 105:6.91938e-05 106:8.86819e-05 107:7.83904e-05 108:7.55438e-05 109:8.67112e-05 110:6.87558e-05 111:6.0654e-05 112:5.47419e-05 113:7.68576e-05 114:6.52523e-05 115:6.04351e-05 116:6.54713e-05 117:6.94127e-05 118:6.45954e-05 119:6.37196e-05 120:6.24058e-05 121:6.50334e-05 122:9.4813e-05 123:6.7442e-05 124:3.96331e-05 125:6.02161e-05 126:7.51059e-05 127:5.10194e-05 128:0.00021415 129:0.000857915 130:0.00108214 131:0.0013103 132:0.00122578 133:0.00164248 134:0.00156102 135:0.00165189 136:0.00157898 137:0.00169525 138:0.00160284 139:0.00159627 140:0.00147935 141:0.00151547 142:0.00147737 143:0.00156211 144:0.00124133 145:0.00138212 146:0.00133942 147:0.00127045 148:0.0011925 149:0.0011371 150:0.0012133 151:0.00122447 152:0.0011452 153:0.00110316 154:0.00110841 155:0.000993018 156:0.000752811 157:0.000804487 158:0.000866893 159:0.000894483 160:0.000746898 161:0.000647049 162:0.000651866 163:0.000641356 164:0.000535595 165:0.000388886 166:0.000425016 167:0.000413192 168:0.000416038 169:0.000369617 170:0.000387354 171:0.000308963 172:0.000399178 173:0.00028838 174:0.000345312 175:0.00017386 176:0.000237361 177:0.000222033 178:0.000278965 179:0.000217654 180:0.000218968 181:0.00023123 182:0.000253127 183:0.000163569 184:0.000247214 185:0.000329327 186:0.000236047 187:0.000238237 188:0.000274366 189:0.000269111 190:0.000173422 191:0.000117367 193:2.10209e-05 194:0.000224223 195:0.000469466 196:0.000868863 197:0.00142241 198:0.00166065 199:0.00244543 200:0.00302701 201:0.00358756 202:0.00375573 203:0.00434432 204:0.00438636 205:0.0049259 206:0.00522019 207:0.0048348 208:0.00498896 209:0.00486283 210:0.00453351 211:0.0048348 212:0.00451949 213:0.00414812 214:0.00401499 215:0.0037207 216:0.00357355 217:0.00329327 218:0.00307606 219:0.00293592 220:0.00222821 221:0.00235434 222:0.00208107 223:0.00183582 224:0.00167466 225:0.00154854 226:0.00145044 227:0.0012122 228:0.00109309 229:0.00094594 230:0.000791787 231:0.00062362 232:0.000469466 233:0.000532529 234:0.000259258 235:0.000273272 236:0.000210209 237:0.00016116 238:0.000140139 239:0.000147146 240:4.20418e-05 241:5.60557e-05 242:4.20418e-05 243:3.50348e-05 244:2.80279e-05 245:1.40139e-05 247:7.00696e-06 256:7.00696e-06 257:6.30627e-05 258:0.000210209 259:0.000476473 260:0.000805801 261:0.00109309 262:0.00105104 263:0.00104404 264:0.00128227 265:0.00105805 266:0.000994989 267:0.000959954 268:0.000595592 269:0.000567564 270:0.000441439 271:0.000224223 272:0.00016116 273:7.00696e-05 274:7.00696e-06 276:7.00696e-06 323:1.40139e-05 324:9.80975e-05 325:0.000140139 326:0.000182181 327:0.000168167 328:0.000294292 329:0.000434432 330:0.000364362 331:0.00046246 332:0.000644641 333:0.000448446 334:0.000644641 335:0.000616613 336:0.000658654 337:0.000798794 338:0.000798794 339:0.000798794 340:0.000826822 341:0.000742738 342:0.00116316 343:0.001009 344:0.000910905 345:0.000994989 346:0.00114914 347:0.00112111 348:0.000840836 349:0.00114914 350:0.00137336 351:0.000980975 352:0.00113513 353:0.001009 354:0.00127527 355:0.00106506 356:0.00103703 357:0.0013033 358:0.00103703 359:0.00119118 360:0.000966961 361:0.00114914 362:0.000966961 363:0.000854849 364:0.000826822 365:0.000686682 366:0.000504501 367:0.000588585 368:0.000406404 369:0.000336334 370:0.00039239 371:0.000350348 372:0.000280279 373:0.000266265 374:0.000196195 375:8.40835e-05 376:0.000112111 377:9.80975e-05 378:0.000126125 380:2.80279e-05 382:1.40139e-05 383:1.40139e-05 384:0.00016116 385:0.00493991 386:0.00891286 387:0.0119749 388:0.0138388 389:0.015107 390:0.0155134 391:0.0145114 392:0.0132922 393:0.0116806 394:0.0105385 395:0.0116736 396:0.0115265 397:0.0125214 398:0.011085 399:0.00997091 400:0.00969063 401:0.00896891 402:0.00947341 403:0.00922817 404:0.00948743 405:0.0087587 406:0.00866061 407:0.00814209 408:0.00731527 409:0.00786181 410:0.00800195 411:0.00798794 412:0.00762358 413:0.0068458 414:0.00629926 415:0.00571067 416:0.00630627 417:0.00617313 418:0.00570367 419:0.00540237 420:0.00512209 421:0.00495392 422:0.00461058 423:0.00458255 424:0.00419016 425:0.00424622 426:0.00347545 427:0.00311109 428:0.0028168 429:0.00268367 430:0.00209508 431:0.00224924 432:0.00200399 433:0.00157657 434:0.0016116 435:0.00145044 436:0.0013103 437:0.00113513 438:0.000707703 439:0.000700696 440:0.000581578 441:0.000294292 442:0.000287285 443:0.000112111 444:0.000140139 445:8.40835e-05 446:4.90487e-05 447:7.00696e-06 456:8.40835e-05 458:5.60557e-05 459:8.40835e-05 460:2.80279e-05 475:5.60557e-05 483:2.80279e-05 489:5.60557e-05 490:0.000112111 491:0.000168167 492:0.000168167 493:0.000112111 523:5.60557e-05 524:8.40835e-05 525:0.000224223 526:0.00039239 527:0.000364362 528:0.000364362 529:0.000728724 530:0.000616613 531:0.000728724 532:0.000924919 533:0.00114914 534:0.00137336 535:0.00134534 536:0.00142942 537:0.0015135 538:0.00224223 539:0.00229828 540:0.00213012 541:0.00288687 542:0.00193392 543:0.00232631 544:0.0029149 545:0.00266265 546:0.00285884 547:0.00297095 548:0.00330729 549:0.00316715 550:0.00277476 551:0.00381179 552:0.00364362 553:0.00417615 554:0.00364362 555:0.00448446 556:0.0049329 557:0.00468065 558:0.00515712 559:0.00568965 560:0.00596993 561:0.00552149 562:0.00456854 563:0.00496093 564:0.00414812 565:0.00383982 566:0.00381179 567:0.00316715 568:0.00313912 569:0.00257856 570:0.00145745 571:0.00134534 572:0.000896891 573:0.000504501 574:0.000252251 575:0.000168167 588:9.80975e-05 589:0.000252251 590:0.000238237 591:0.000266265 592:0.000252251 593:0.000266265 594:0.000252251 595:0.000266265 596:0.000294292 597:0.000406404 598:0.000266265 599:0.000658654 600:0.000350348 601:0.000588585 602:0.000672668 603:0.00039239 604:0.000728724 605:0.000896891 606:0.000658654 607:0.00046246 608:0.000896891 609:0.000686682 610:0.000812808 611:0.000826822 612:0.00128928 613:0.000980975 614:0.000994989 615:0.000742738 616:0.00102302 617:0.00078478 618:0.000938933 619:0.000812808 620:0.00128928 621:0.000742738 622:0.00121921 623:0.00152752 624:0.00124724 625:0.00106506 626:0.00194794 627:0.00148548 628:0.00194794 629:0.00287285 630:0.00295694 631:0.00354552 632:0.00423221 633:0.00381179 634:0.00473671 635:0.00589986 636:0.00647443 637:9.80975e-05 640:0.413517 
1 0:0.000503939 1:0.0034881 2:0.00487916 3:0.0057839 4:0.00565516 5:0.00531027 6:0.00505513 7:0.0047194 8:0.00460804 9:0.00444735 10:0.00432612 11:0.00369203 12:0.00400379 13:0.00362789 14:0.00322756 15:0.00347753 16:0.00312841 17:0.00311385 18:0.00307579 19:0.00302645 20:0.002706 21:0.00267992 22:0.00262072 23:0.00258383 24:0.0023886 25:0.00234467 26:0.00213745 27:0.00235359 28:0.00201106 29:0.00215413 30:0.00220629 31:0.00193611 32:0.00192483 33:0.00203854 34:0.00182593 35:0.00179632 36:0.00185459 37:0.00174111 38:0.0015783 39:0.00170047 40:0.00178599 41:0.00153555 42:0.00145919 43:0.00142066 44:0.00143429 45:0.00149537 46:0.0013819 47:0.00146765 48:0.0013772 49:0.0012656 50:0.00132199 51:0.00137908 52:0.00135817 53:0.00143805 54:0.00124634 55:0.00137743 56:0.00141056 57:0.00134525 58:0.00128698 59:0.00143993 60:0.00130131 61:0.00127195 62:0.00113451 63:0.000604962 64:2.67828e-05 65:0.000117233 66:0.000159522 67:0.00020416 68:0.000248798 69:0.000250207 70:0.000265713 71:0.000245744 72:0.000282394 73:0.000251617 74:0.000262424 75:0.000234467 76:0.000249972 77:0.00027652 78:0.000280514 79:0.000257021 80:0.000269002 81:0.000243864 82:0.000270412 83:0.000230943 84:0.00024081 85:0.000229533 86:0.000237051 87:0.000230943 88:0.000226244 89:0.000250912 90:0.000216611 91:0.000238461 92:0.000239165 93:0.000219196 94:0.000232117 95:0.000243394 96:0.000238696 97:0.000194293 98:0.000222485 99:0.000224129 100:0.000238226 101:0.000238461 102:0.000196642 103:0.000210268 104:0.000203455 105:0.00024222 106:0.000205569 107:0.000225304 108:0.000222485 109:0.000249738 110:0.000180196 111:0.000243864 112:0.000226244 113:0.000180431 114:0.000211443 115:0.000215437 116:0.000208154 117:0.000225069 118:0.00022131 119:0.000227888 120:0.000236111 121:0.00022131 122:0.000198756 123:0.000230943 124:0.000215907 125:0.000230708 126:0.000200636 127:0.000143076 128:5.96739e-05 129:0.000458126 130:0.000620232 131:0.000681786 132:0.000730418 133:0.000649834 134:0.000635738 135:0.000635268 136:0.000551396 137:0.000636678 138:0.00051968 139:0.000544113 140:0.000466349 141:0.000470108 142:0.000441446 143:0.00040597 144:0.000467289 145:0.000452958 146:0.000393519 147:0.00040738 148:0.000419362 149:0.000338544 150:0.000340188 151:0.000373079 152:0.000254671 153:0.000370025 154:0.00031411 155:0.000419362 156:0.000347001 157:0.000339483 158:0.000347471 159:0.00026078 160:0.000358043 161:0.000300484 162:0.00038835 163:0.000283803 164:0.000290147 165:0.000241045 166:0.000241515 167:0.000300014 168:0.000257021 169:0.000269002 170:0.000311526 171:0.000311526 172:0.000242924 173:0.000239165 174:0.000194762 175:0.000191708 176:0.000322803 177:0.000212618 178:0.000186775 179:0.000280044 180:0.000196642 181:0.000226244 182:0.000281219 183:0.000164221 184:0.000200871 185:0.000214967 186:0.00024034 187:0.000261484 188:0.00024222 189:0.00020181 190:0.000275111 191:7.75291e-05 193:2.25539e-05 194:0.000135323 195:0.000255611 196:0.000623991 197:0.00109011 198:0.00160885 199:0.00196971 200:0.0023005 201:0.00294704 202:0.00335301 203:0.00352593 204:0.00342819 205:0.00374395 206:0.00415744 207:0.00399956 208:0.00419503 209:0.00457092 210:0.00487164 211:0.00479646 212:0.00446567 213:0.0049769 214:0.00469121 215:0.00410481 216:0.00363118 217:0.00357855 218:0.00336053 219:0.00335301 220:0.00281924 221:0.00269143 222:0.00227794 223:0.00233057 224:0.00207496 225:0.00158629 226:0.00160133 227:0.00170658 228:0.00127054 229:0.00121791 230:0.00088712 231:0.000714207 232:0.000759315 233:0.000541294 234:0.00044356 235:0.000353345 236:0.000300719 237:0.000225539 238:0.000202985 239:0.000157877 240:0.000120287 241:6.76617e-05 242:9.02156e-05 243:3.00719e-05 244:1.50359e-05 245:1.50359e-05 246:7.51797e-06 248:7.51797e-06 256:7.51797e-06 257:0.000105252 258:0.000533776 259:0.00101493 260:0.00148104 261:0.00221028 262:0.00233057 263:0.00220276 264:0.00244334 265:0.00246589 266:0.00224035 267:0.00232305 268:0.0021351 269:0.00193212 270:0.00176672 271:0.00139082 272:0.00121039 273:0.00092471 274:0.000586402 275:0.000375898 276:0.000157877 277:6.76617e-05 278:7.51797e-06 279:7.51797e-06 280:7.51797e-06 322:1.50359e-05 323:3.00719e-05 324:9.02156e-05 325:0.000150359 326:0.000255611 327:0.000285683 328:0.000285683 329:0.00048115 330:0.000646545 331:0.000571366 332:0.000496186 333:0.000571366 334:0.000601437 335:0.000526258 336:0.00040597 337:0.000511222 338:0.000751797 339:0.000796905 340:0.000526258 341:0.000646545 342:0.000932228 343:0.000541294 344:0.000661581 345:0.000601437 346:0.000796905 347:0.000706689 348:0.000661581 349:0.000631509 350:0.000676617 351:0.000436042 352:0.000496186 353:0.000390934 354:0.000526258 355:0.000466114 356:0.000511222 357:0.000451078 358:0.000571366 359:0.000496186 360:0.000390934 361:0.000496186 362:0.000451078 363:0.000496186 364:0.00048115 365:0.000390934 366:0.00040597 367:0.000180431 368:0.000330791 369:0.000285683 370:0.000210503 371:0.000210503 372:0.000135323 373:0.000165395 374:0.000135323 375:0.000150359 376:7.51797e-05 377:3.00719e-05 378:3.00719e-05 379:3.00719e-05 382:1.50359e-05 383:1.50359e-05 384:8.26977e-05 385:0.00532272 386:0.00927717 387:0.0113822 388:0.0152239 389:0.0166974 390:0.0178928 391:0.0182386 392:0.0179078 393:0.0184416 394:0.0175319 395:0.0168402 396:0.0158178 397:0.0156674 398:0.0148555 399:0.0135624 400:0.0133669 401:0.0120513 402:0.0109086 403:0.0103673 404:0.00904412 405:0.00905163 406:0.00780365 407:0.0065256 408:0.00614218 409:0.00647297 410:0.00550315 411:0.0052701 412:0.00516484 413:0.00563848 414:0.00479646 415:0.00499193 416:0.00509718 417:0.00486413 418:0.00448823 419:0.00383416 420:0.00385672 421:0.00393942 422:0.00408226 423:0.00351089 424:0.00365373 425:0.00328535 426:0.00308237 427:0.00284931 428:0.00262377 429:0.00205992 430:0.00209751 431:0.00187949 432:0.00166147 433:0.00144345 434:0.00109011 435:0.00115025 436:0.000578884 437:0.000533776 438:0.000458596 439:0.00036838 440:0.000315755 441:0.000225539 442:0.000180431 443:0.000150359 444:6.01437e-05 445:3.75898e-05 446:2.25539e-05 447:7.51797e-06 455:6.01437e-05 456:0.000300719 457:0.000751797 458:0.000751797 459:0.000691653 460:0.000721725 461:0.000992372 462:0.000601437 463:0.000390934 464:0.000270647 465:0.000180431 466:0.000150359 467:0.000210503 468:0.000270647 489:3.00719e-05 524:0.000300719 525:0.000721725 526:0.00144345 527:0.00153367 528:0.00174417 529:0.00231553 530:0.00246589 531:0.00285683 532:0.00330791 533:0.0040597 534:0.00393942 535:0.00457092 536:0.00508215 537:0.00532272 538:0.00508215 539:0.00390934 540:0.00454085 541:0.00586402 542:0.00622488 543:0.00487164 544:0.00496186 545:0.0048115 546:0.00472128 547:0.00439049 548:0.00448071 549:0.00466114 550:0.00520243 551:0.00372891 552:0.00360862 553:0.00427021 554:0.00457092 555:0.00390934 556:0.00408978 557:0.00348834 558:0.00318762 559:0.00291697 560:0.00246589 561:0.00234561 562:0.00222532 563:0.00165395 564:0.00144345 565:0.00114273 566:0.00135323 567:0.000721725 568:0.000511222 569:0.000270647 570:0.000451078 571:0.000270647 572:0.000180431 573:0.000210503 574:0.000120287 592:4.51078e-05 597:3.00719e-05 598:3.00719e-05 600:4.51078e-05 601:1.50359e-05 602:1.50359e-05 604:1.50359e-05 605:4.51078e-05 606:7.51797e-05 608:0.000240575 609:4.51078e-05 610:4.51078e-05 611:0.000165395 612:0.000240575 613:7.51797e-05 614:0.000195467 615:0.000345827 616:0.000210503 617:0.000541294 618:0.000601437 619:0.000811941 620:0.000826977 621:0.000451078 622:0.00118784 623:0.00103748 624:0.00147352 625:0.00132316 626:0.00315755 627:0.0015487 628:0.00255611 629:0.00427021 630:0.00336805 631:0.00568358 632:0.00950271 633:0.00933732 634:0.0124498 635:0.01048 636:0.00377402 640:0.398917 
1 0:0.000847727 1:0.00518955 2:0.00758153 3:0.00862264 4:0.0080214 5:0.00743484 6:0.00695901 7:0.00621767 8:0.00582845 9:0.00487547 10:0.00453596 11:0.00384095 12:0.00355454 13:0.00342631 14:0.00309961 15:0.00281452 16:0.00265051 17:0.00242681 18:0.00233398 19:0.00230348 20:0.00181051 21:0.00198732 22:0.00179827 23:0.00172784 24:0.0016497 25:0.00150828 26:0.0014179 27:0.00130322 28:0.00117273 29:0.00114637 30:0.00098914 31:0.00110909 32:0.000897627 33:0.00094489 34:0.000818729 35:0.000853376 36:0.000862414 37:0.000822871 38:0.000956376 39:0.000831533 40:0.000914573 41:0.000759038 42:0.000748869 43:0.000827202 44:0.000652083 45:0.000751694 46:0.00062252 47:0.000613105 48:0.000612352 49:0.000560569 50:0.000585613 51:0.000640974 52:0.000637396 53:0.000706879 54:0.000663946 55:0.000655849 56:0.0007854 57:0.000624591 58:0.000672043 59:0.000655849 60:0.000605385 61:0.000679952 62:0.000579964 63:0.000278496 64:3.0128e-06 65:2.27843e-05 66:5.8373e-05 67:6.66582e-05 68:8.49233e-05 69:0.000109402 70:9.415e-05 71:0.000105071 72:0.000124278 73:0.000111285 74:9.30202e-05 75:0.000111285 76:0.000109967 77:0.000115428 78:0.000114863 79:9.01957e-05 80:0.000108084 81:0.000107896 82:9.65979e-05 83:0.000109779 84:0.000107331 85:8.30403e-05 86:0.000114863 87:0.000103377 88:0.000106201 89:0.000106201 90:8.88776e-05 91:0.000107143 92:9.84809e-05 93:0.000104507 94:8.68063e-05 95:8.36052e-05 96:9.32085e-05 97:9.45266e-05 98:7.06125e-05 99:8.79361e-05 100:8.96308e-05 101:9.00074e-05 102:0.000105071 103:8.62414e-05 104:6.81646e-05 105:8.04041e-05 106:7.60732e-05 107:8.88776e-05 108:7.45668e-05 109:9.43383e-05 110:6.94827e-05 111:0.000107519 112:8.69946e-05 113:7.56966e-05 114:8.34169e-05 115:7.04242e-05 116:8.24754e-05 117:8.69946e-05 118:6.00677e-05 119:7.98392e-05 120:9.62213e-05 121:9.17021e-05 122:7.47551e-05 123:7.21189e-05 124:8.92542e-05 125:6.47752e-05 126:8.68063e-05 127:4.97112e-05 128:0.000568101 129:0.00323443 130:0.00407858 131:0.0043503 132:0.00425408 133:0.00398179 134:0.0038321 135:0.00341388 136:0.0033508 137:0.00283429 138:0.00292355 139:0.00233454 140:0.00209013 141:0.00198901 142:0.00185494 143:0.0016497 144:0.00161938 145:0.00148249 146:0.00131264 147:0.00141997 148:0.00118799 149:0.00127592 150:0.00105203 151:0.00110965 152:0.000924365 153:0.000871641 154:0.000805359 155:0.000786341 156:0.000777491 157:0.000814774 158:0.000730228 159:0.000693321 160:0.000678069 161:0.00067901 162:0.000523851 163:0.000588061 164:0.000524039 165:0.000569043 166:0.00050295 167:0.000545505 168:0.000447966 169:0.000533831 170:0.000352686 171:0.000478094 172:0.000392229 173:0.000410306 174:0.00031239 175:0.000358523 176:0.000389969 177:0.000273223 178:0.00037999 179:0.000389216 180:0.0004265 181:0.000332915 182:0.000412565 183:0.000303916 184:0.000447778 185:0.000354569 186:0.00033894 187:0.000287534 188:0.000220123 189:0.000284521 190:0.000278496 191:0.000134823 194:3.61536e-05 195:0.000132563 196:0.000259101 197:0.000415767 198:0.000590509 199:0.000976148 200:0.00124127 201:0.00170525 202:0.00187999 203:0.00234396 204:0.00250665 205:0.00268742 206:0.00288024 207:0.00310921 208:0.00324177 209:0.00358523 210:0.00360934 211:0.00363344 212:0.00381421 213:0.00348882 214:0.00339844 215:0.00314536 216:0.00292242 217:0.00300075 218:0.00265127 219:0.00241024 220:0.00219935 221:0.00186191 222:0.00168114 223:0.00170525 224:0.00151845 225:0.00146422 226:0.000976148 227:0.000915892 228:0.000765252 229:0.000729098 230:0.000674868 231:0.000650765 232:0.000494099 233:0.000385639 234:0.000373587 235:0.000265127 236:0.000253075 237:0.000132563 238:0.000180768 239:0.000108461 240:0.000108461 241:6.0256e-05 242:4.21792e-05 243:4.21792e-05 244:2.41024e-05 257:1.20512e-05 258:0.000138589 259:0.000222947 260:0.000554355 261:0.00069897 262:0.000939994 263:0.000861661 264:0.00114486 265:0.000915892 266:0.000771277 267:0.000970122 268:0.000891789 269:0.000879738 270:0.000819482 271:0.000644739 272:0.000482048 273:0.000457946 274:0.000343459 275:0.000319357 276:0.000138589 277:0.000120512 278:6.62816e-05 279:1.20512e-05 281:6.0256e-06 323:2.41024e-05 324:2.41024e-05 325:4.82048e-05 326:0.000120512 327:0.000168717 328:0.000313331 329:0.000349485 330:0.000494099 331:0.000686919 332:0.000807431 333:0.0010364 334:0.00116897 335:0.00134974 336:0.00149435 337:0.00167512 338:0.00122922 339:0.00177153 340:0.00171127 341:0.00156666 342:0.00180768 343:0.00222947 344:0.0019523 345:0.00214511 346:0.00210896 347:0.00204871 348:0.00181973 349:0.00187999 350:0.00178358 351:0.0019764 352:0.0020005 353:0.00227768 354:0.00185589 355:0.00198845 356:0.00180768 357:0.00174742 358:0.00159076 359:0.0015064 360:0.00134974 361:0.00130153 362:0.00132563 363:0.0010364 364:0.00112076 365:0.000831533 366:0.000662816 367:0.000626663 368:0.000542304 369:0.000506151 370:0.000361536 371:0.000277178 372:0.000337434 373:0.000156666 374:0.000180768 375:0.000180768 376:6.0256e-05 377:3.61536e-05 378:3.61536e-05 379:4.82048e-05 380:6.0256e-05 381:1.20512e-05 382:1.20512e-05 383:1.20512e-05 384:3.61536e-05 385:0.00491087 386:0.0077911 387:0.0121476 388:0.0132684 389:0.0119427 390:0.0132624 391:0.0134371 392:0.0121175 393:0.00918904 394:0.0102194 395:0.0105328 396:0.00929148 397:0.00726688 398:0.00905045 399:0.00902635 400:0.00758623 401:0.00612201 402:0.00780316 403:0.00756816 404:0.00607381 405:0.00618227 406:0.00683303 407:0.00620637 408:0.00491689 409:0.00530253 410:0.00592919 411:0.00511574 412:0.00429625 413:0.0049892 414:0.00462164 415:0.00421792 416:0.00336229 417:0.00406728 418:0.00342254 419:0.00294652 420:0.00265729 421:0.00311524 422:0.00275973 423:0.00264524 424:0.00285011 425:0.00305498 426:0.00285614 427:0.00261511 428:0.00294049 429:0.00258498 430:0.00241024 431:0.00233793 432:0.00239216 433:0.00198242 434:0.00181973 435:0.00138589 436:0.00107858 437:0.00101833 438:0.00112679 439:0.000970122 440:0.000614611 441:0.000373587 442:0.000271152 443:9.64096e-05 444:4.82048e-05 445:2.41024e-05 460:4.82048e-05 462:7.23072e-05 463:4.82048e-05 464:2.41024e-05 468:7.23072e-05 469:0.000168717 470:0.000313331 471:2.41024e-05 472:7.23072e-05 473:4.82048e-05 477:7.23072e-05 478:7.23072e-05 479:7.23072e-05 523:2.41024e-05 525:4.82048e-05 526:9.64096e-05 527:0.000361536 528:0.000433843 529:0.000482048 530:0.00120512 531:0.000964096 532:0.00132563 533:0.00171127 534:0.00253075 535:0.00224152 536:0.00289229 537:0.00359126 538:0.00421792 539:0.00484458 540:0.00380818 541:0.00542304 542:0.00535074 543:0.00472407 544:0.00544715 545:0.00445895 546:0.00469997 547:0.0049651 548:0.00465177 549:0.00532663 550:0.00494099 551:0.00580868 552:0.00457946 553:0.0049892 554:0.00508561 555:0.00624252 556:0.00672457 557:0.00633893 558:0.00592919 559:0.00718252 560:0.00711021 561:0.00706201 562:0.00790559 563:0.00718252 564:0.00751995 565:0.00638714 566:0.00686919 567:0.00609791 568:0.00563996 569:0.00527843 570:0.00486869 571:0.00433843 572:0.00351895 573:0.00183178 574:0.00113281 575:0.000313331 593:2.41024e-05 596:6.0256e-05 598:1.20512e-05 599:4.82048e-05 600:6.0256e-05 601:0.000265127 602:0.00020487 603:0.000265127 604:0.000289229 605:0.000409741 606:0.000494099 607:6.0256e-05 608:0.000662816 609:0.00104845 610:0.000915892 611:0.00090384 612:0.00090384 613:0.00119307 614:0.00122922 615:0.00163896 616:0.00209691 617:0.00285614 618:0.00286819 619:0.00343459 620:0.00433843 621:0.00427818 622:0.00444689 623:0.00439869 624:0.00401305 625:0.00338639 626:0.00389254 627:0.00354305 628:0.00362741 629:0.00518202 630:0.00425408 631:0.00461561 632:0.00586894 633:0.00738739 634:0.00885764 635:0.00836354 636:0.00568817 637:0.000265127 640:0.393237 
1 0:0.00105518 1:0.00624452 2:0.00874933 3:0.00909217 4:0.00925528 5:0.00913373 6:0.00866505 7:0.00844432 8:0.00802065 9:0.0080754 10:0.0071366 11:0.00726502 12:0.00660858 13:0.00612011 14:0.00620181 15:0.0057251 16:0.00562735 17:0.00522689 18:0.00496575 19:0.0044641 20:0.0050827 21:0.00444145 22:0.00420926 23:0.00399427 24:0.00379676 25:0.00349921 26:0.00367866 27:0.00342612 28:0.00355024 29:0.00334843 30:0.00311137 31:0.00306206 32:0.00279089 33:0.00312713 34:0.00268712 35:0.00289724 36:0.00258134 37:0.0025329 38:0.00270804 39:0.00230844 40:0.00221471 41:0.00250796 42:0.00226086 43:0.00225169 44:0.00214792 45:0.00210692 46:0.0019163 47:0.00205676 48:0.00217372 49:0.00219837 50:0.00199714 51:0.00218862 52:0.00202465 53:0.00199484 54:0.00188305 55:0.00190827 56:0.00197306 57:0.00207912 58:0.00200917 59:0.00220983 60:0.00197076 61:0.00182629 62:0.00194783 63:0.000964312 64:6.5931e-06 65:4.15652e-05 66:7.62506e-05 67:9.63166e-05 68:0.000140748 69:0.000168841 70:0.00018518 71:0.000185467 72:0.000203813 73:0.000201519 74:0.000183747 75:0.000194066 76:0.000186327 77:0.00019808 78:0.000208686 79:0.000188907 80:0.000188333 81:0.0001783 82:0.000172854 83:0.0001912 84:0.00019722 85:0.000182313 86:0.000171421 87:0.000195786 88:0.000169987 89:0.000190913 90:0.00017744 91:0.000172854 92:0.00018948 93:0.000191486 94:0.000161101 95:0.000153075 96:0.000187473 97:0.000172567 98:0.00017744 99:0.000166261 100:0.000164254 101:0.000124409 102:0.000145908 103:0.000166547 104:0.000147055 105:0.000143042 106:0.000134729 107:0.000184607 108:0.000167694 109:0.000151068 110:0.000157661 111:0.000143042 112:0.000174287 113:0.000141608 114:0.000173427 115:0.000152501 116:0.000138168 117:0.000176294 118:0.000138742 119:0.00017916 120:0.000154508 121:0.000139888 122:0.000144761 123:0.000154508 124:0.000146481 125:0.000148488 126:0.000131862 127:8.4277e-05 129:1.40462e-05 130:1.63394e-05 131:1.17529e-05 132:3.64054e-05 133:9.74632e-06 135:5.73313e-06 136:9.45966e-06 138:8.59969e-06 139:7.73972e-06 141:3.43988e-06 142:5.44647e-06 143:8.88635e-06 145:7.73972e-06 146:7.45307e-06 147:2.86656e-06 152:1.0033e-05 154:1.57661e-05 158:1.17529e-05 164:4.5865e-06 176:8.59969e-06 183:5.15982e-06 193:1.8346e-05 194:0.000110076 195:0.000348574 196:0.000788878 197:0.00145851 198:0.00172452 199:0.00278859 200:0.0030913 201:0.00361416 202:0.00428379 203:0.00525613 204:0.00561388 205:0.0056414 206:0.0059808 207:0.00656787 208:0.00687975 209:0.00670547 210:0.00660456 211:0.00659539 212:0.00692562 213:0.0064211 214:0.006999 215:0.00634772 216:0.00586155 217:0.00560471 218:0.00508184 219:0.00504515 220:0.00447643 221:0.00425627 222:0.00379762 223:0.00371507 224:0.0030913 225:0.00316469 226:0.00277025 227:0.00226573 228:0.00200889 229:0.00181625 230:0.00144016 231:0.00136678 232:0.00102738 233:0.00102738 234:0.00073384 235:0.000724667 236:0.00055038 237:0.000476996 238:0.000385266 239:0.000229325 240:0.000247671 241:0.00018346 242:0.000100903 243:0.000201806 244:7.3384e-05 245:7.3384e-05 246:7.3384e-05 247:2.7519e-05 248:2.7519e-05 249:4.5865e-05 250:1.8346e-05 251:1.8346e-05 252:1.8346e-05 255:9.17301e-06 256:9.17301e-06 257:2.7519e-05 258:0.000284363 259:0.000596245 260:0.000862262 261:0.00163279 262:0.00146768 263:0.00167866 264:0.00188047 265:0.00176122 266:0.00177956 267:0.00176122 268:0.00154106 269:0.00153189 270:0.00132091 271:0.000926473 272:0.000779705 273:0.000449477 274:0.000229325 275:1.8346e-05 327:1.8346e-05 329:1.8346e-05 330:1.8346e-05 332:1.8346e-05 334:1.8346e-05 336:1.8346e-05 346:1.8346e-05 347:1.8346e-05 351:3.6692e-05 354:1.8346e-05 357:1.8346e-05 364:1.8346e-05 384:5.5038e-05 385:0.0045865 386:0.00804473 387:0.0116956 388:0.0140806 389:0.0164931 390:0.0181442 391:0.0186487 392:0.0196577 393:0.0204375 394:0.0201164 395:0.0190615 396:0.0195385 397:0.0185662 398:0.0178231 399:0.0170985 400:0.0155299 401:0.0155574 402:0.0145117 403:0.0146493 404:0.0134201 405:0.0132642 406:0.0124936 407:0.0122368 408:0.0118057 409:0.0110351 410:0.0107324 411:0.0105214 412:0.00980594 413:0.00914549 414:0.00888864 415:0.00831074 416:0.00817315 417:0.00818232 418:0.00783375 419:0.00700818 420:0.00697148 421:0.0064211 422:0.00648531 423:0.00597163 424:0.00547628 425:0.0050635 426:0.00507267 427:0.00474244 428:0.00455898 429:0.00419206 430:0.00377011 431:0.00310048 432:0.00283446 433:0.00277025 434:0.0023116 435:0.00228408 436:0.00212814 437:0.00178874 438:0.00152272 439:0.00129339 440:0.00100903 441:0.000788878 442:0.000651283 443:0.000587072 444:0.000229325 445:0.000174287 446:0.000146768 447:6.4211e-05 457:7.3384e-05 463:7.3384e-05 525:0.000110076 526:0.000110076 527:0.000146768 528:0.000146768 529:0.000146768 530:7.3384e-05 531:0.00018346 532:7.3384e-05 533:7.3384e-05 534:3.6692e-05 535:0.00018346 537:7.3384e-05 538:7.3384e-05 539:0.000220152 540:3.6692e-05 541:0.000146768 542:3.6692e-05 543:3.6692e-05 545:3.6692e-05 546:3.6692e-05 548:3.6692e-05 549:7.3384e-05 550:7.3384e-05 551:3.6692e-05 552:0.000110076 553:7.3384e-05 555:0.000110076 556:3.6692e-05 557:3.6692e-05 558:7.3384e-05 560:0.000146768 561:3.6692e-05 562:0.000110076 564:7.3384e-05 621:1.8346e-05 622:1.8346e-05 623:3.6692e-05 626:0.00018346 627:1.8346e-05 628:7.3384e-05 629:0.000165114 630:0.000165114 631:0.000110076 632:0.000110076 633:9.173e-05 634:9.173e-05 635:0.000330228 636:9.173e-05 640:0.433124 
1 0:0.00111638 1:0.00589015 2:0.00744279 3:0.00773408 4:0.00805081 5:0.00759255 6:0.00738157 7:0.00755597 8:0.00727131 9:0.00711414 10:0.007486 11:0.00668131 12:0.00658484 13:0.00689574 14:0.00675314 15:0.00643853 16:0.00636379 17:0.00601472 18:0.00562059 19:0.00568553 20:0.00548674 21:0.00510296 22:0.00545653 23:0.00517452 24:0.00488535 25:0.00496328 26:0.00453098 27:0.00488217 28:0.00468524 29:0.00444166 30:0.00436639 31:0.00405257 32:0.00428184 33:0.00442125 34:0.00403667 35:0.00407272 36:0.00390627 37:0.00386757 38:0.00394894 39:0.00363565 40:0.00394258 41:0.00344376 42:0.00385538 43:0.0038082 44:0.00325134 45:0.00346894 46:0.00354898 47:0.00362876 48:0.00333218 49:0.00314002 50:0.00332714 51:0.003655 52:0.00340321 53:0.00334463 54:0.00341142 55:0.00307402 56:0.00305918 57:0.0031705 58:0.00329851 59:0.00327996 60:0.00309151 61:0.00311934 62:0.00307667 63:0.00163057 64:7.95142e-07 65:1.56378e-05 66:3.12756e-05 67:4.77085e-05 68:5.38046e-05 69:5.0624e-05 70:8.4285e-05 71:6.44065e-05 72:7.60686e-05 73:7.60686e-05 74:6.49366e-05 75:8.26948e-05 76:6.59968e-05 77:9.67423e-05 78:9.62122e-05 79:7.44783e-05 80:7.58035e-05 81:8.11045e-05 82:7.8189e-05 83:5.32745e-05 84:8.11045e-05 85:7.05026e-05 86:8.45501e-05 87:7.31531e-05 88:5.77803e-05 89:6.25512e-05 90:4.18775e-05 91:7.65987e-05 92:6.30813e-05 93:5.24794e-05 94:7.8454e-05 95:6.38764e-05 96:7.63336e-05 97:6.75871e-05 98:5.69852e-05 99:5.72502e-05 100:7.02375e-05 101:4.53231e-05 102:6.44065e-05 103:4.00221e-05 104:5.93706e-05 105:5.5925e-05 106:6.04308e-05 107:5.48648e-05 108:8.08394e-05 109:5.19493e-05 110:5.45998e-05 111:5.83104e-05 112:5.24794e-05 113:7.65987e-05 114:4.95639e-05 115:5.83104e-05 116:5.40697e-05 117:7.73938e-05 118:5.75153e-05 119:4.53231e-05 120:4.85037e-05 121:5.45998e-05 122:6.25512e-05 123:6.54667e-05 124:6.54667e-05 125:6.09609e-05 126:4.63833e-05 127:2.06737e-05 128:4.13474e-05 129:3.86969e-05 130:6.65269e-05 131:6.65269e-05 132:3.76367e-05 133:7.02375e-05 134:3.73717e-05 135:5.83104e-05 136:5.99007e-05 137:4.98289e-05 138:3.79018e-05 139:4.37328e-05 140:1.90834e-05 141:7.63336e-05 142:1.43126e-05 143:5.69852e-05 144:3.47212e-05 145:4.90338e-05 146:4.4528e-05 147:1.90834e-05 148:3.49862e-05 149:4.95639e-05 150:2.54445e-05 151:4.00221e-05 152:1.19271e-05 153:1.72281e-05 154:4.55881e-05 155:2.06737e-05 156:2.14688e-05 157:2.91552e-05 158:2.27941e-05 159:2.04086e-05 161:4.77085e-05 162:1.29873e-05 163:5.64551e-05 164:5.19493e-05 165:3.20707e-05 166:4.26726e-05 167:9.5417e-06 168:3.47212e-05 169:3.68416e-05 170:2.33242e-05 171:1.35174e-05 172:4.58532e-05 173:1.27223e-05 174:4.63833e-05 175:2.51795e-05 176:6.01657e-05 177:3.04804e-05 178:4.02872e-05 179:1.06019e-05 180:3.97571e-05 181:4.5058e-05 182:2.57096e-05 183:4.66483e-05 184:2.35892e-05 185:4.39979e-05 186:3.65765e-05 187:2.70348e-05 188:4.61182e-05 189:3.12756e-05 190:1.59028e-05 191:2.09387e-05 193:8.48151e-06 194:0.00016963 195:0.000415594 196:0.000882078 197:0.00135704 198:0.00163693 199:0.00239179 200:0.00275649 201:0.00305335 202:0.00354527 203:0.00353679 204:0.00435102 205:0.00452065 206:0.0043595 207:0.00523309 208:0.00523309 209:0.00556387 210:0.00547906 211:0.00541121 212:0.0054621 213:0.00539424 214:0.00557236 215:0.0055045 216:0.00519069 217:0.00541121 218:0.00512283 219:0.00482598 220:0.00478357 221:0.00435102 222:0.00463939 223:0.00440191 224:0.00386757 225:0.00376579 226:0.00374035 227:0.00329083 228:0.00333324 229:0.00277346 230:0.00231545 231:0.00240027 232:0.00239179 233:0.00199316 234:0.00150123 235:0.00147578 236:0.00120438 237:0.00111108 238:0.00105171 239:0.000873596 240:0.000754855 241:0.00067004 242:0.000424076 243:0.000373187 244:0.000347742 245:0.000212038 246:0.000245964 247:0.000195075 248:0.000101778 249:3.39261e-05 250:5.93706e-05 251:7.63336e-05 252:2.54445e-05 254:1.6963e-05 255:8.48151e-06 256:8.48151e-06 257:2.54445e-05 258:0.000195075 259:0.00027989 260:0.000568261 261:0.000602188 262:0.000746373 263:0.000831188 264:0.00072941 265:0.000712447 266:0.00067004 267:0.000788781 268:0.000644595 269:0.000381668 270:0.000245964 271:0.00011026 272:3.39261e-05 322:1.6963e-05 323:3.39261e-05 327:5.08891e-05 328:1.6963e-05 329:1.6963e-05 330:1.6963e-05 331:3.39261e-05 333:1.6963e-05 334:1.6963e-05 335:1.6963e-05 336:1.6963e-05 337:1.6963e-05 338:1.6963e-05 339:5.08891e-05 340:5.08891e-05 342:3.39261e-05 344:1.6963e-05 345:3.39261e-05 346:8.48151e-05 347:3.39261e-05 348:1.6963e-05 349:3.39261e-05 350:1.6963e-05 351:1.6963e-05 353:1.6963e-05 354:1.6963e-05 355:5.08891e-05 356:1.6963e-05 357:6.78521e-05 358:1.6963e-05 359:3.39261e-05 360:8.48151e-05 361:1.6963e-05 362:1.6963e-05 363:1.6963e-05 364:5.08891e-05 365:5.08891e-05 366:1.6963e-05 367:6.78521e-05 368:1.6963e-05 369:3.39261e-05 370:1.6963e-05 371:1.6963e-05 372:3.39261e-05 373:6.78521e-05 374:5.08891e-05 375:3.39261e-05 376:5.08891e-05 377:3.39261e-05 379:1.6963e-05 380:8.48151e-05 381:3.39261e-05 384:0.000118741 385:0.00279042 386:0.00470724 387:0.00736195 388:0.00936359 389:0.0109751 390:0.0126968 391:0.0129852 392:0.0146306 393:0.0158689 394:0.0166747 395:0.0170139 396:0.0161064 397:0.0178451 398:0.016751 399:0.0167934 400:0.0162251 401:0.0151904 402:0.0144525 403:0.0143168 404:0.012841 405:0.0129343 406:0.0124424 407:0.0113992 408:0.0113483 409:0.0112974 410:0.0109836 411:0.0104323 412:0.00990641 413:0.00952474 414:0.00882077 415:0.00874444 416:0.00809985 417:0.0076164 418:0.0073874 419:0.00716688 420:0.00703118 421:0.00607276 422:0.00669191 423:0.00626784 424:0.00574199 425:0.00554691 426:0.0049532 427:0.00489383 428:0.00450368 429:0.0045885 430:0.00419835 431:0.00386757 432:0.00398631 433:0.00333324 434:0.0031212 435:0.0029346 436:0.00265471 437:0.00251901 438:0.00201012 439:0.00180656 440:0.00153515 441:0.00111108 442:0.0011026 443:0.000805744 444:0.000687003 445:0.000313816 446:0.000101778 447:3.39261e-05 523:3.39261e-05 526:3.39261e-05 527:0.000135704 528:0.000237482 529:0.000373187 530:0.000474965 531:0.000373187 532:0.000135704 533:0.000135704 534:0.00016963 535:0.000373187 536:0.000271408 537:0.000237482 538:0.00016963 539:0.000101778 540:0.000135704 541:0.00016963 542:0.000305335 543:0.000203556 544:0.000203556 545:0.000135704 546:0.000237482 547:0.000237482 548:0.000203556 549:0.000135704 550:0.000101778 551:0.000203556 552:0.000135704 553:0.000237482 554:0.000271408 555:0.00016963 556:0.00016963 557:0.000101778 558:0.000339261 559:0.000271408 560:0.000271408 561:0.000373187 562:0.000339261 563:0.000373187 564:0.000203556 565:0.000101778 566:0.000339261 567:0.000441039 568:0.000271408 569:0.000271408 570:0.000101778 571:0.000101778 572:6.78521e-05 573:6.78521e-05 618:1.6963e-05 619:5.08891e-05 620:1.6963e-05 621:6.78521e-05 622:0.000101778 623:8.48151e-05 624:0.000101778 625:0.000101778 626:0.000271408 627:0.00016963 628:0.000203556 629:0.000339261 630:0.000458002 631:0.000491928 632:0.000491928 633:0.000458002 634:0.000610669 635:0.000932967 636:0.000288371 637:1.6963e-05 640:0.474942 
1 0:0.000859666 1:0.0041597 2:0.00512586 3:0.00540551 4:0.00520182 5:0.00520235 6:0.00487277 7:0.00497209 8:0.00499201 9:0.00456842 10:0.00500529 11:0.00479894 12:0.00462313 13:0.00442713 14:0.00436579 15:0.00425398 16:0.00421388 17:0.00427894 18:0.00437322 19:0.00391404 20:0.00372549 21:0.00375842 22:0.00355392 23:0.0037539 24:0.00352046 25:0.00371752 26:0.00320894 27:0.00325887 28:0.00328808 29:0.00316061 30:0.0033319 31:0.00315477 32:0.00290008 33:0.00309767 34:0.0029593 35:0.00280182 36:0.00286024 37:0.0026831 38:0.00283395 39:0.00287246 40:0.00255855 41:0.00277712 42:0.00269426 43:0.00256067 44:0.0025296 45:0.00248578 46:0.00266611 47:0.00257926 48:0.00234928 49:0.00236548 50:0.00209459 51:0.00256784 52:0.00235273 53:0.00267381 54:0.00237982 55:0.00244727 56:0.00237132 57:0.00232272 58:0.00212805 59:0.00260051 60:0.00249694 61:0.00239575 62:0.00250384 63:0.0011526 64:1.00918e-05 65:6.63937e-05 66:0.000111276 67:0.00014102 68:0.000168109 69:0.000149519 70:0.000160407 71:0.000125883 72:0.000145535 73:0.000146066 74:0.000127742 75:0.000149519 76:0.000158283 77:0.000116056 78:0.000133319 79:0.000148722 80:0.000151378 81:0.000146863 82:0.000147129 83:0.000156424 84:0.000120837 85:0.000135443 86:0.00012004 87:0.000124289 88:0.00011526 89:0.000138896 90:0.000148988 91:0.000131194 92:0.000134647 93:0.000111807 94:0.000134912 95:0.000135178 96:0.000107823 97:0.000153237 98:0.000132787 99:0.000121633 100:0.000119774 101:0.00015005 102:0.000106496 103:0.000149253 104:0.000145801 105:0.000104105 106:0.000129335 107:0.000124289 108:0.000122164 109:0.000117915 110:9.32168e-05 111:0.000105699 112:0.000113135 113:0.000105699 114:0.000149784 115:9.98562e-05 116:0.000130928 117:0.000114994 118:0.000119243 119:9.58726e-05 120:0.000133584 121:0.000128538 122:0.000135709 123:0.000130663 124:0.000116587 125:0.00012243 126:0.000119774 127:6.98462e-05 128:5.23183e-05 129:0.000178998 130:0.00020768 131:0.000214053 132:0.00025389 133:0.000272214 134:0.00024247 135:0.000179529 136:0.000259201 137:0.000179794 138:0.000150847 139:0.00024008 140:0.00015722 141:0.00019865 142:0.000172358 143:0.000175811 144:0.000230785 145:0.000182981 146:0.000107558 147:0.000150581 148:0.000187762 149:0.00016625 150:0.000241673 151:0.000144738 152:0.00012004 153:0.000131725 154:0.000173155 155:0.000149253 156:0.000154033 157:0.000116056 158:0.000160407 159:0.000106496 160:0.000105168 161:9.58726e-05 162:0.000108089 163:8.25938e-05 164:0.000149519 165:7.46266e-05 166:0.000101715 167:9.10922e-05 168:5.6833e-05 169:8.39217e-05 170:6.50659e-05 171:0.000102512 172:2.78854e-05 173:9.9325e-05 174:9.24201e-05 175:0.000108355 176:6.95806e-05 177:7.2502e-05 178:0.000106761 179:6.53314e-05 180:0.000102778 181:9.5607e-05 182:7.67512e-05 183:0.000105168 184:9.85283e-05 185:0.000112869 186:0.000116853 187:8.63119e-05 188:7.54233e-05 189:0.000125883 190:5.17871e-05 191:2.81509e-05 193:4.2492e-05 194:0.00021246 195:0.00068837 196:0.00147872 197:0.00186965 198:0.0026685 199:0.00276198 200:0.00359482 201:0.00393476 202:0.00418971 203:0.0047846 204:0.00488658 205:0.00494607 206:0.00571942 207:0.00606786 208:0.0063908 209:0.00678172 210:0.00640779 211:0.00629731 212:0.00614434 213:0.00617834 214:0.00561744 215:0.00548147 216:0.00500556 217:0.00492907 218:0.00441067 219:0.00427469 220:0.00404524 221:0.00396025 222:0.00348434 223:0.00277048 224:0.0026345 225:0.00239655 226:0.00204811 227:0.00188664 228:0.00164019 229:0.00130026 230:0.00115578 231:0.000909329 232:0.00102831 233:0.00084984 234:0.000679872 235:0.00068837 236:0.000560894 237:0.000365431 238:0.000288946 239:0.000169968 240:0.000288946 241:0.00016147 242:0.000178466 243:5.09904e-05 244:9.34824e-05 245:5.94888e-05 246:1.69968e-05 247:2.54952e-05 248:8.4984e-06 249:1.69968e-05 250:8.4984e-06 251:8.4984e-06 255:8.4984e-06 257:0.000110479 258:0.000356933 259:0.00079885 260:0.0010708 261:0.00111329 262:0.00146172 263:0.00143623 264:0.00151272 265:0.00166569 266:0.00152121 267:0.00139374 268:0.0010538 269:0.000934824 270:0.000620383 271:0.00037393 272:0.000152971 273:8.4984e-06 322:1.69968e-05 323:5.09904e-05 324:8.4984e-05 325:0.000101981 326:0.000186965 327:0.000135974 328:0.000135974 329:0.000152971 330:0.000254952 331:0.000322939 332:0.000288946 333:0.000271949 334:0.000220958 335:0.000169968 336:0.00037393 337:0.000254952 338:0.000305942 339:0.000237955 340:0.000169968 341:0.000186965 342:0.000271949 343:0.000203962 344:0.000288946 345:0.000305942 346:0.000356933 347:0.000322939 348:0.000339936 349:0.000339936 350:0.000169968 351:0.000203962 352:0.000186965 353:0.000152971 354:0.000237955 355:0.000203962 356:0.000169968 357:8.4984e-05 358:0.000203962 359:0.000220958 360:0.000254952 361:0.000152971 362:0.000169968 363:0.000118978 364:0.000101981 365:0.000135974 366:0.000135974 367:8.4984e-05 368:8.4984e-05 369:3.39936e-05 370:5.09904e-05 371:1.69968e-05 373:1.69968e-05 375:5.09904e-05 378:3.39936e-05 379:1.69968e-05 384:8.4984e-05 385:0.00331438 386:0.00664575 387:0.00931425 388:0.0109799 389:0.0126031 390:0.0147277 391:0.0162659 392:0.0169968 393:0.0176002 394:0.0185945 395:0.018365 396:0.0179401 397:0.0179656 398:0.0180251 399:0.0174982 400:0.0164444 401:0.015977 402:0.015926 403:0.0149402 404:0.0139289 405:0.0128836 406:0.0125521 407:0.0116088 408:0.0112689 409:0.0100026 410:0.00997712 411:0.00997712 412:0.00952671 413:0.0090338 414:0.00829444 415:0.00858338 416:0.00752958 417:0.00782703 418:0.00736811 419:0.0068752 420:0.00622083 421:0.00562594 422:0.00545597 423:0.00492057 424:0.00470811 425:0.00415572 426:0.0036968 427:0.00312741 428:0.00288096 429:0.00259201 430:0.00241355 431:0.00190364 432:0.00140224 433:0.00115578 434:0.000994313 435:0.000832843 436:0.000739361 437:0.000416422 438:0.000271949 439:0.000331438 440:0.000280447 441:0.00021246 442:0.000127476 443:0.000101981 444:6.79872e-05 445:2.54952e-05 446:2.54952e-05 447:8.4984e-06 455:0.000101981 456:0.000271949 457:0.00037393 458:0.000509904 459:0.000951821 460:0.000815846 461:0.000679872 462:0.00047591 463:0.000135974 464:3.39936e-05 471:3.39936e-05 522:3.39936e-05 524:0.000101981 525:0.000509904 526:0.000577891 527:0.00122377 528:0.00132575 529:0.00163169 530:0.00152971 531:0.00234556 532:0.00203962 533:0.00234556 534:0.00241355 535:0.00220958 536:0.00309342 537:0.0021076 538:0.00244754 539:0.00258351 540:0.00227757 541:0.00322939 542:0.00220958 543:0.0021416 544:0.00197163 545:0.00197163 546:0.00166569 547:0.00149572 548:0.0015977 549:0.00125776 550:0.00193764 551:0.00190364 552:0.00186965 553:0.00152971 554:0.0015977 555:0.00139374 556:0.0010878 557:0.00115578 558:0.000917827 559:0.000747859 560:0.000169968 561:0.000645878 562:0.00047591 563:0.00037393 564:0.00047591 565:0.000407923 566:0.00047591 567:0.000305942 568:0.000305942 569:0.000305942 570:6.79872e-05 571:0.000101981 572:6.79872e-05 609:1.69968e-05 610:1.69968e-05 611:1.69968e-05 613:3.39936e-05 614:3.39936e-05 615:0.000135974 616:1.69968e-05 617:3.39936e-05 618:0.000135974 619:0.000169968 620:0.000135974 621:5.09904e-05 622:0.000135974 623:0.000288946 624:0.000237955 625:0.000203962 626:0.0016147 627:0.000713866 628:0.00117278 629:0.00329738 630:0.00300843 631:0.00365431 632:0.00521802 633:0.00411323 634:0.00387527 635:0.00377329 636:0.00122377 640:0.470988 
1 0:0.000187351 1:0.0017814 2:0.00391063 3:0.00495307 4:0.00541753 5:0.00567273 6:0.00584364 7:0.00532699 8:0.00543762 9:0.00513155 10:0.00516312 11:0.0050744 12:0.00510806 13:0.00478764 14:0.00522209 15:0.00529776 16:0.00464882 17:0.00496977 18:0.00517826 19:0.00483252 20:0.00496612 21:0.00473571 22:0.00502665 23:0.00474093 24:0.00458776 25:0.00462638 26:0.00467648 27:0.00485574 28:0.00456323 29:0.00485574 30:0.00447008 31:0.0047177 32:0.00472762 33:0.00456715 34:0.00440876 35:0.00439206 36:0.00458698 37:0.00425063 38:0.00465873 39:0.00443146 40:0.0044886 41:0.00431874 42:0.00463603 43:0.0043978 44:0.00449121 45:0.00413739 46:0.00421749 47:0.00425324 48:0.00413739 49:0.00435866 50:0.00462299 51:0.004152 52:0.00412069 53:0.00428168 54:0.00422297 55:0.00428899 56:0.00429316 57:0.00430204 58:0.00422871 59:0.00419349 60:0.00419296 61:0.0044385 62:0.00424541 63:0.00202825 64:3.91403e-06 65:5.27089e-05 66:6.00151e-05 67:7.17571e-05 68:6.8104e-05 69:5.81885e-05 70:6.21025e-05 71:6.49728e-05 72:5.58401e-05 73:4.22715e-05 74:6.26244e-05 75:5.29698e-05 76:6.54947e-05 77:6.419e-05 78:6.54947e-05 79:6.13197e-05 80:5.2187e-05 81:7.51493e-05 82:6.34072e-05 83:5.6101e-05 84:5.94932e-05 85:5.45354e-05 86:5.00995e-05 87:6.65384e-05 88:5.71448e-05 89:7.04525e-05 90:4.38371e-05 91:3.88793e-05 92:5.81885e-05 93:7.01915e-05 94:5.55792e-05 95:5.2187e-05 96:5.19261e-05 97:5.84494e-05 98:4.77511e-05 99:5.34917e-05 100:4.04449e-05 101:4.38371e-05 102:5.74057e-05 103:4.0184e-05 104:6.26244e-05 105:6.21025e-05 106:5.11433e-05 107:4.20105e-05 108:4.69683e-05 109:6.05369e-05 110:4.72292e-05 111:4.59246e-05 112:5.47964e-05 113:3.75746e-05 114:5.92322e-05 115:5.2187e-05 116:4.8273e-05 117:5.50573e-05 118:5.53182e-05 119:5.2187e-05 120:5.2187e-05 121:5.50573e-05 122:4.51418e-05 123:6.0276e-05 124:5.89713e-05 125:4.77511e-05 126:3.75746e-05 127:2.8181e-05 128:2.29623e-05 129:3.31387e-05 130:4.33152e-05 131:0.000174566 132:0.000154474 133:0.000179784 134:0.000265371 135:0.000196484 136:0.00022597 137:0.000247627 138:0.000197006 139:0.000169086 140:0.000177175 141:0.000162823 142:0.00017013 143:0.000206661 144:0.000139861 145:0.000143775 146:0.000186829 147:0.000146124 148:0.000258326 149:0.000264066 150:0.000172478 151:9.18491e-05 152:0.000133077 153:0.000144558 154:0.000185786 155:0.000208226 156:0.000146385 157:0.000140905 158:0.00019805 159:0.000148211 160:0.000148733 161:0.000148472 162:0.000170651 163:0.000126814 164:0.000202486 165:0.000107244 166:9.86334e-05 167:0.00014795 168:0.000117943 169:8.37601e-05 170:0.000115333 171:0.000185003 172:0.00021475 173:0.000116377 174:0.00017874 175:0.000177958 176:0.000156039 177:0.000169608 178:0.00011455 179:0.000164389 180:0.000186569 181:0.00014221 182:0.000160214 183:0.000104113 184:0.00019544 185:0.000132294 186:0.000210314 187:0.000187612 188:0.000172217 189:0.000110115 190:0.000128641 191:9.83725e-05 193:1.66998e-05 194:0.000175348 195:0.000467596 196:0.000876742 197:0.00144454 198:0.00195388 199:0.00242983 200:0.00299762 201:0.00316462 202:0.00377416 203:0.00440041 204:0.00442546 205:0.0047511 206:0.0052354 207:0.0052521 208:0.00564455 209:0.0055527 210:0.0054525 211:0.00572805 212:0.0051853 213:0.0055193 214:0.00539405 215:0.00524375 216:0.0050851 217:0.00526045 218:0.00487635 219:0.00474275 220:0.00444216 221:0.00415826 222:0.00405806 223:0.00399961 224:0.00360717 225:0.00333997 226:0.00304772 227:0.00270537 228:0.00288072 229:0.00262187 230:0.00219603 231:0.00232128 232:0.00188708 233:0.00155309 234:0.00146959 235:0.00144454 236:0.00103539 237:0.000918491 238:0.000860042 239:0.000676344 240:0.000500995 241:0.000459246 242:0.000350697 243:0.000267197 244:0.000217098 245:0.000133599 246:6.67994e-05 247:0.000133599 248:8.34992e-05 249:6.67994e-05 250:6.67994e-05 252:8.34992e-06 253:8.34992e-06 254:8.34992e-06 255:8.34992e-06 257:8.34992e-05 258:0.000225448 259:0.000450896 260:0.000551095 261:0.000559445 262:0.000651294 263:0.000684693 264:0.000734793 265:0.000667994 266:0.000709743 267:0.000517695 268:0.000392446 269:0.000217098 270:0.000150299 271:2.50498e-05 321:1.66998e-05 324:1.66998e-05 327:5.00995e-05 328:3.33997e-05 329:6.67994e-05 330:5.00995e-05 331:3.33997e-05 332:0.000133599 333:0.000233798 334:8.34992e-05 335:5.00995e-05 336:0.000200398 337:0.000116899 338:0.000233798 339:0.000183698 340:0.000250498 341:0.000100199 342:0.000166998 343:0.000166998 344:0.000200398 345:0.000217098 346:0.000250498 347:0.000166998 348:0.000166998 349:0.000166998 350:0.000183698 351:8.34992e-05 352:0.000150299 353:0.000200398 354:0.000183698 355:0.000350697 356:0.000250498 357:0.000150299 358:0.000217098 359:0.000267197 360:0.000116899 361:0.000133599 362:0.000200398 363:0.000116899 364:0.000217098 365:0.000150299 366:0.000250498 367:0.000150299 368:8.34992e-05 369:5.00995e-05 370:0.000150299 371:0.000133599 372:0.000100199 373:3.33997e-05 374:8.34992e-05 375:3.33997e-05 376:3.33997e-05 377:1.66998e-05 384:0.000141949 385:0.00189543 386:0.00359047 387:0.00537735 388:0.00735628 389:0.00805767 390:0.00954396 391:0.0109551 392:0.011598 393:0.0126334 394:0.013769 395:0.0140613 396:0.0142867 397:0.0144871 398:0.0155142 399:0.0158648 400:0.015798 401:0.0161988 402:0.0157062 403:0.0157396 404:0.0161237 405:0.0147209 406:0.0150549 407:0.0144287 408:0.0144036 409:0.0142283 410:0.0130426 411:0.0126418 412:0.0121575 413:0.0108048 414:0.010905 415:0.0106795 416:0.0100784 417:0.00962746 418:0.00870897 419:0.00781552 420:0.00794077 421:0.00704733 422:0.00674674 423:0.00641274 424:0.0052521 425:0.00529385 426:0.0050183 427:0.00438371 428:0.00410816 429:0.00348192 430:0.00310617 431:0.00300597 432:0.00258013 433:0.00244653 434:0.00211253 435:0.00169503 436:0.00164493 437:0.00142784 438:0.000976941 439:0.000826642 440:0.000743143 441:0.000392446 442:0.000367396 443:0.000300597 444:0.000183698 445:9.18491e-05 446:1.66998e-05 447:1.66998e-05 528:3.33997e-05 530:6.67994e-05 531:6.67994e-05 532:3.33997e-05 533:6.67994e-05 534:0.000133599 535:0.000267197 536:6.67994e-05 537:0.000166998 538:3.33997e-05 539:0.000200398 540:0.000133599 541:0.000100199 542:0.000233798 543:0.000467596 544:0.000333997 545:0.000734793 546:0.000801592 547:0.000300597 548:0.000534395 549:0.000634594 550:0.000701393 551:0.000868392 552:0.000868392 553:0.000667994 554:0.000734793 555:0.000500995 556:0.000734793 557:0.000834992 558:0.000567795 559:0.00110219 560:0.00120239 561:0.000734793 562:0.00106879 563:0.000734793 564:0.000801592 565:0.000601194 566:0.000634594 567:0.000634594 568:0.000634594 569:0.000434196 570:0.000500995 571:0.000166998 572:0.000200398 573:0.000133599 574:3.33997e-05 609:1.66998e-05 610:1.66998e-05 611:1.66998e-05 612:8.34992e-05 613:3.33997e-05 614:6.67994e-05 615:3.33997e-05 616:3.33997e-05 617:5.00995e-05 618:1.66998e-05 619:0.000133599 620:0.000133599 621:0.000116899 622:0.000217098 623:8.34992e-05 624:0.000250498 625:0.000233798 626:0.000467596 627:0.000617894 628:0.000651294 629:0.00111889 630:0.00115229 631:0.000935191 632:0.000851692 633:0.000684693 634:0.000534395 635:0.000834992 636:0.00103539 637:0.000333997 640:0.449827 
1 0:6.1959e-05 1:0.000333379 2:0.000651369 3:0.000999738 4:0.00114025 5:0.00149181 6:0.00162073 7:0.00183499 8:0.00194271 9:0.00192752 10:0.00216497 11:0.00192273 12:0.00201107 13:0.0019683 14:0.0019663 15:0.00184718 16:0.00186037 17:0.00204145 18:0.00201686 19:0.00179301 20:0.00176803 21:0.00163712 22:0.00183099 23:0.00172046 24:0.00158335 25:0.00161473 26:0.00145124 27:0.00134671 28:0.00162612 29:0.00147103 30:0.00139488 31:0.00150301 32:0.00137069 33:0.00138049 34:0.00148941 35:0.00124218 36:0.00140687 37:0.00140187 38:0.00127116 39:0.00134211 40:0.00128635 41:0.00111686 42:0.00122839 43:0.0012046 44:0.00119301 45:0.00134071 46:0.00115484 47:0.00106929 48:0.00107789 49:0.0010641 50:0.00113925 51:0.00112006 52:0.00107889 53:0.00108268 54:0.00114324 55:0.00106869 56:0.00112186 57:0.00125197 58:0.00113265 59:0.00111486 60:0.00115823 61:0.00111586 62:0.00106749 63:0.000525852 64:4.19722e-06 65:2.59828e-05 66:4.49702e-05 67:6.61562e-05 68:7.77485e-05 69:9.79352e-05 70:0.00010573 71:0.000125517 72:0.000138708 73:0.000140307 74:0.000144904 75:0.000155297 76:0.000194871 77:0.000186077 78:0.000148102 79:0.000186676 80:0.000189275 81:0.000205064 82:0.000222053 83:0.000210461 84:0.000210061 85:0.000191673 86:0.000220454 87:0.000205264 88:0.000202866 89:0.000204065 90:0.000188675 91:0.000224052 92:0.00022625 93:0.000182479 94:0.000235644 95:0.00022605 96:0.000201467 97:0.000142306 98:0.000215258 99:0.000204665 100:0.000190674 101:0.000189475 102:0.000153698 103:0.000200467 104:0.000193272 105:0.000164691 106:0.000178682 107:0.000174684 108:0.000206663 109:0.000176283 110:0.000199868 111:0.000179881 112:0.000188275 113:0.000199468 114:0.000178082 115:0.000164291 116:0.000176283 117:0.000179481 118:0.000205864 119:0.000183678 120:0.000189475 121:0.000193272 122:0.000187676 123:0.000150301 124:0.000163492 125:0.000204465 126:0.000191473 127:0.00010593 128:1.53898e-05 129:0.000161293 130:0.000295005 131:0.000390142 132:0.000584213 133:0.000780683 134:0.00104751 135:0.00114544 136:0.00123718 137:0.00128035 138:0.00134531 139:0.00161813 140:0.00157736 141:0.00155317 142:0.00157336 143:0.00149001 144:0.00152439 145:0.00139787 146:0.00141306 147:0.00125517 148:0.00118941 149:0.00117382 150:0.00127216 151:0.00124917 152:0.00118701 153:0.00113045 154:0.00106849 155:0.00100813 156:0.00107789 157:0.0010499 158:0.000971957 159:0.000947773 160:0.000778884 161:0.000838245 162:0.00084584 163:0.0007553 164:0.000863628 165:0.00083125 166:0.000847439 167:0.000776286 168:0.000657964 169:0.000726119 170:0.000707332 171:0.000579017 172:0.000553034 173:0.000674154 174:0.000728518 175:0.000645772 176:0.000674354 177:0.000549836 178:0.000598604 179:0.000596605 180:0.000563427 181:0.000626985 182:0.000625386 183:0.000692542 184:0.000618391 185:0.000594407 186:0.000656765 187:0.000526651 188:0.000496471 189:0.000517457 190:0.000590209 191:0.000331181 193:1.27915e-05 194:3.19788e-05 195:0.000108728 196:0.000268622 197:0.000383746 198:0.000684347 199:0.000850637 200:0.00128555 201:0.00148382 202:0.00175244 203:0.00216816 204:0.00262866 205:0.00275658 206:0.00335778 207:0.00319788 208:0.00366477 209:0.00384386 210:0.00417644 211:0.00432993 212:0.00413806 213:0.00367117 214:0.00351767 215:0.00334499 216:0.00323626 217:0.0025647 218:0.00275658 219:0.00207862 220:0.0022705 221:0.00180361 222:0.00156057 223:0.00129834 224:0.00116403 225:0.000908199 226:0.000773888 227:0.000633181 228:0.000505265 229:0.000294205 230:0.000255831 231:0.000230248 232:9.59365e-05 233:0.000102332 234:7.03534e-05 235:1.27915e-05 236:1.27915e-05 237:6.39577e-06 238:6.39577e-06 257:3.19788e-05 258:0.000172686 259:0.000313393 260:0.00058841 261:0.000857033 262:0.00106809 263:0.00125357 264:0.0015158 265:0.00166929 266:0.00170767 267:0.00152859 268:0.00152219 269:0.00152219 270:0.00143265 271:0.00143265 272:0.0010553 273:0.000671555 274:0.00049887 275:0.000268622 276:0.000262226 277:0.000108728 278:0.000102332 279:6.39577e-05 280:4.47704e-05 281:5.11661e-05 282:1.27915e-05 283:6.39577e-06 284:1.27915e-05 286:6.39577e-06 290:6.39577e-06 324:0.000127915 325:7.67492e-05 326:0.000102332 327:0.000140707 328:0.000191873 329:0.000281414 330:0.000511661 331:0.00058841 332:0.000869824 333:0.000793075 334:0.00101053 335:0.00122799 336:0.0016629 337:0.00199548 338:0.00199548 339:0.00243039 340:0.00287809 341:0.0028653 342:0.00287809 343:0.00285251 344:0.00294205 345:0.0031723 346:0.00295484 347:0.0031723 348:0.00282693 349:0.00309555 350:0.00285251 351:0.00266064 352:0.00283972 353:0.00239202 354:0.00200827 355:0.00175244 356:0.00191873 357:0.00124078 358:0.00134311 359:0.00126636 360:0.000895407 361:0.000895407 362:0.000550036 363:0.000370954 364:0.000268622 365:0.000217456 366:0.000102332 367:0.000127915 368:6.39577e-05 369:2.55831e-05 370:2.55831e-05 371:1.27915e-05 372:1.27915e-05 373:2.55831e-05 374:3.83746e-05 375:1.27915e-05 376:3.83746e-05 377:1.27915e-05 380:1.27915e-05 382:1.27915e-05 383:1.27915e-05 384:0.000153498 385:0.00220654 386:0.00461135 387:0.00690743 388:0.00909478 389:0.0105402 390:0.0119153 391:0.0134439 392:0.0148062 393:0.0152219 394:0.016079 395:0.0155609 396:0.0159127 397:0.0160086 398:0.0149469 399:0.0139556 400:0.0131561 401:0.0115763 402:0.0112246 403:0.0102972 404:0.00946573 405:0.00938898 406:0.00837206 407:0.00745746 408:0.00688184 409:0.0063382 410:0.00605679 411:0.00553873 412:0.00510382 413:0.00476485 414:0.00391421 415:0.00390142 416:0.0031659 417:0.00291007 418:0.00232166 419:0.00203385 420:0.00162452 421:0.00117682 422:0.000793075 423:0.000620389 424:0.000415725 425:0.000409329 426:0.000147103 427:0.000108728 428:4.47704e-05 429:2.55831e-05 430:1.27915e-05 432:6.39577e-06 457:0.000127915 458:0.000383746 459:0.00110007 460:0.00130474 461:0.00163732 462:0.00250714 463:0.00327463 464:0.00440029 465:0.0033258 466:0.0033258 467:0.00248156 468:0.00158615 469:0.00143265 470:0.00112565 471:0.00112565 472:0.000844241 473:0.000767492 474:0.000537244 475:0.00066516 476:0.000179081 477:0.000179081 478:0.000255831 479:7.67492e-05 480:7.67492e-05 481:2.55831e-05 482:7.67492e-05 484:0.000102332 485:5.11661e-05 489:2.55831e-05 496:2.55831e-05 498:2.55831e-05 524:2.55831e-05 525:0.000716326 526:0.000844241 527:0.00179081 528:0.00240481 529:0.0031723 530:0.00399096 531:0.00406771 532:0.0043747 533:0.0051422 534:0.00626785 535:0.00657485 536:0.00767492 537:0.00711209 538:0.00741909 539:0.00759817 540:0.00795633 541:0.00885174 542:0.00808425 543:0.00913315 544:0.00890291 545:0.00895407 546:0.00918432 547:0.00897966 548:0.010003 549:0.00805867 550:0.00913315 551:0.00890291 552:0.00767492 553:0.0063446 554:0.00593527 555:0.00537244 556:0.00429795 557:0.00330022 558:0.00306997 559:0.00243039 560:0.00168848 561:0.0012024 562:0.00104891 563:0.000639577 564:0.000230248 565:0.000127915 566:0.000204665 567:0.000102332 569:0.000102332 570:7.67492e-05 571:5.11661e-05 572:7.67492e-05 573:7.67492e-05 574:2.55831e-05 575:5.11661e-05 592:1.27915e-05 593:5.11661e-05 594:3.83746e-05 595:6.39577e-05 596:0.000127915 597:5.11661e-05 598:0.000115124 599:0.000153498 600:0.000230248 601:0.000230248 602:0.000281414 603:0.000537244 604:0.000562827 605:0.000652368 606:0.00110007 607:0.000230248 608:0.00162452 609:0.00138149 610:0.0013559 611:0.00157336 612:0.00144544 613:0.00138149 614:0.00161173 615:0.00277576 616:0.00156057 617:0.00353046 618:0.00359442 619:0.00326184 620:0.00405492 621:0.00281414 622:0.00482241 623:0.0052829 624:0.00506545 625:0.00310834 626:0.00805867 627:0.00351767 628:0.00610156 629:0.00832729 630:0.00621668 631:0.00652368 632:0.00587131 633:0.00427237 634:0.00369675 635:0.0024176 636:3.83746e-05 640:0.371036 
